float reccurent_kernel_h1[20800] = {0.015554394,-0.07712423,0.030489707,0.34737712,-0.081011444,-0.19341564,-0.17003368,0.096517384,-0.14325957,0.045243442,-0.011815592,-0.18610233,0.0679023,0.1367948,0.03694605,-0.04683471,0.03589787,-0.06897174,-0.07375235,0.009268683,0.1318914,0.023566423,0.12683411,-0.011313033,-0.02890983,0.09368606,-0.00882234,0.060000405,0.122955106,-0.055648845,-0.00028740332,0.034312382,-0.007771053,0.009575307,0.03836416,0.026608642,-0.12840424,0.14972778,0.13199097,-0.40234214,0.028227212,0.005598138,-0.0034378339,0.037901647,0.17936146,0.08755536,0.020721694,0.05032026,-0.010426711,0.12758139,0.23740149,0.6352816,0.34853247,0.077524856,0.1305317,0.09322522,0.23486793,0.037360765,-0.16419415,0.055636674,0.02757681,0.30395165,0.084366366,-0.010218538,-0.040246017,-0.11777422,-0.030441573,0.33986375,0.051721457,-0.037052587,-0.0694578,-0.06531741,0.019502642,-0.04491742,0.09327004,0.32947916,0.011768439,-0.10328234,0.20509987,-0.052170847,0.073926084,-0.041383345,-0.15348032,0.07522119,0.08812368,-0.114957936,-0.10728744,-0.20406932,0.020517886,0.08991106,-0.1324022,-0.015541567,0.04435752,0.18571705,-0.0007190396,-0.016034856,0.10047963,0.049031917,0.07424188,-0.00023184528,0.09089849,-0.011124556,-0.023681069,0.2132375,-0.068047546,-0.09154423,0.024130635,-0.04928995,-0.013331225,-0.018039372,0.023933433,0.3231881,-0.05283543,0.024238491,0.0042516715,-0.01015517,-0.026592005,-0.14875576,0.0020377352,0.029092832,0.007052633,0.06498473,0.122668654,0.03233935,-0.025569791,0.070071734,-0.03009174,0.13437827,0.3062247,0.02616317,-0.15538155,-0.059115417,-0.01049043,-0.056442667,-0.07407753,0.101879865,-0.18115662,-0.04758626,0.0092049185,-0.33589956,0.0024725173,-0.046874642,-0.037426855,-0.01936618,0.07124045,0.043537274,-0.12544891,0.013443423,-0.018248955,-0.06877837,0.15276377,-0.06484256,0.08517127,-0.021949563,-0.039747432,-0.09307385,0.037883073,-0.12597238,0.017588956,0.00039887254,-0.068999924,0.05210786,-0.09851112,-0.0076573705,0.148003,0.06585575,0.031299584,0.028905818,0.021033768,0.013025663,0.015547585,-0.026907409,-0.00470584,-0.058726966,-0.008617606,-0.18228088,0.053308118,-0.07493821,-0.0038363696,0.12759273,0.02852419,-0.03924947,0.03010968,-0.045060467,0.003184382,0.0101673035,-0.032336395,-0.15975767,-0.055037826,0.03273721,0.022969492,-0.039934263,0.05651941,0.34567794,-0.03909354,0.013372062,-0.06991607,0.020610541,-0.06139292,0.014857904,-0.5961095,0.07474284,-0.04798689,-0.059061047,-0.11010977,0.16382267,0.09474245,0.37612414,-0.12935333,-0.16930608,0.030636342,0.2855756,-0.25418848,-0.010631796,-0.07299148,0.13607201,0.19213632,-0.05899685,0.12052009,0.23388621,-0.035334293,-0.07446008,0.28478107,-0.32280943,-0.14632025,-0.1412944,0.19443913,0.28353015,0.1230278,0.021879269,0.056715127,0.10803624,0.13465694,-0.020733818,0.04393682,0.35505044,0.39498916,0.0227768,0.14699069,0.058346696,0.13176334,0.07919561,0.101934254,-0.09962672,0.19561821,-0.08266108,0.11348984,-0.04825633,0.11022664,0.18991782,0.008060461,0.15784578,0.034643676,-0.21392351,0.07908004,-0.17269593,-0.16044714,0.058588423,0.108725995,0.049884416,-0.25553176,-0.22478287,-0.06660719,0.106226146,0.037910476,-0.055039793,-0.075560406,0.06744677,0.22335646,-0.11424624,0.01702045,0.098320656,-0.018105425,-0.14945437,-0.067926705,0.30084,0.010548631,-0.08134562,-0.14727889,-0.0770788,-0.05825956,0.061996855,0.11605721,0.047239114,0.18734872,0.1529375,0.11344731,0.06445466,0.14794351,0.05211778,0.22631681,-0.038192023,-0.037141208,-0.309387,0.2227589,0.09217484,0.15217307,-0.09813585,0.02427583,0.029670177,0.10398204,-0.03927116,-0.06593835,0.5696654,0.0955241,-0.13754499,-0.0353138,0.095051944,0.0032043364,-0.026801389,0.059083614,0.10489876,0.057682727,0.12894644,-0.03022523,0.0017444094,0.04911256,0.03600315,0.06444118,-0.063717924,0.05956851,-0.04494851,0.09262969,0.09577631,-0.056776416,0.039383166,0.060208175,-0.0492674,0.35371667,0.052425496,0.019065736,0.16617797,0.008616598,-0.03963567,0.07124774,0.03334217,-0.11455283,0.13030297,-0.0352031,0.2636073,0.061305646,-0.04779708,-0.018914094,0.21278147,0.13482007,0.0011870867,0.015615259,-0.01101127,0.09124576,0.06288192,0.3838084,0.34966394,0.24811657,0.07112604,0.044469453,0.17079982,0.2854598,-0.040041003,0.030702353,-0.0853653,0.10927535,0.06668523,0.056283202,-0.041832957,0.010307929,0.015255388,-0.1077861,0.33521423,0.005374738,0.074298084,0.069903426,-0.0772188,0.03422496,0.07901298,0.014654393,0.36839068,0.06486217,0.025201848,0.16534808,0.05016156,0.020428427,0.039305232,0.012442815,-0.011332936,0.061071746,-0.123426326,-0.21834017,-0.0075345426,0.014248163,-0.00002222089,-0.06864501,-0.042879734,0.059017833,-0.20884152,-0.0060070544,0.05998467,0.13146785,0.066235505,0.009125572,-0.051512323,
		0.09091546,0.069027,0.13789791,0.04222795,0.088016555,-0.13493134,0.020605734,0.047311183,0.025640162,0.053511877,0.0051398044,0.06568576,-0.071506724,-0.0115355905,0.15315385,0.039142866,-0.009007146,0.027583012,0.062403753,-0.003622699,0.012646291,-0.08417219,0.08342467,0.009642382,-0.08302683,0.04693704,-0.06256883,0.10719512,-0.0024499001,-0.010075645,0.029386202,-0.027825406,-0.03598408,0.09306596,-0.0031017798,0.12354667,0.0732541,0.06335758,0.062212303,0.01986038,-0.054975208,0.033830684,0.049929254,0.030708509,0.006548887,0.025941787,0.060629103,0.021124452,-0.005734141,0.06268995,0.012084782,0.14219584,0.0079650385,-0.0052870205,-0.021738186,-0.028010022,0.008099018,0.08691721,0.09592053,-0.074577644,0.03738054,0.022988131,-0.023820106,0.010483561,0.060553893,0.06436907,-0.04857879,0.13958314,0.045762423,-0.12138663,-0.107806996,-0.03507793,-0.020825615,0.05920786,-0.016305584,0.005118938,-0.0040253447,0.010108271,0.052700873,0.14435418,0.042825285,0.0022505294,0.044364516,-0.022074727,0.1021506,-0.046813622,0.099373855,-0.12946364,-0.09172336,0.010590112,0.006833092,0.01094432,0.06085975,0.07546174,-0.0070886165,0.012589075,0.06603936,-0.15213482,-0.02240995,-0.02181109,0.023707518,0.019027188,-0.035345037,0.026133085,0.19587241,-0.07252192,0.04937537,0.052126575,-0.021069698,-0.012885675,-0.06145324,-0.03149051,0.0022519438,0.073795125,-0.07233241,0.023970822,0.0855347,-0.09153324,0.03089365,0.075721756,-0.005260888,-0.012043702,0.095103994,-0.0187368,0.08451633,0.03772438,0.012401246,0.017974615,-0.007695352,0.07619414,-0.013260213,-0.054058924,-0.02344977,0.046787813,0.013099171,-0.013223662,-0.1272515,-0.036337707,0.046994153,0.22312684,0.04061659,0.09329054,0.014134534,-0.017341303,0.048786934,-0.06567042,0.052693766,0.11298618,0.027864143,0.023930227,0.03962977,0.011799978,-0.096162155,0.05486576,-0.022468476,0.09611792,0.062343135,0.10212187,0.047259927,0.08431456,-0.018144889,-0.018542036,-0.00806875,0.0088742105,0.10934032,0.015802756,0.0841874,-0.043328762,0.059362385,-0.02219916,0.08087713,-0.05648569,-0.024247475,0.0101088,0.09639097,-0.012249149,0.056023218,-0.05020114,0.010758738,0.106537044,0.014723191,0.026686005,0.04488019,0.021549923,0.100391485,-0.0584547,-0.07496826,0.08060692,0.053506535,0.023202218,-0.06678349,0.030230366,0.05423307,0.3180442,0.11180584,0.062763765,0.06685096,0.007889464,0.04107488,-0.019547144,0.1725172,-0.49095595,-0.11760939,0.011316452,-0.0005443877,0.06014863,-0.04019414,-0.13731231,-0.113443665,0.09844204,0.056846485,-0.017440224,0.15352732,0.099610694,0.13265342,-0.062376387,0.10794777,-0.08832992,-0.052503955,0.08777996,-0.038282357,0.023925846,0.04359957,-0.07742435,0.016449815,-0.15874043,0.069495216,0.18165118,0.096885696,-0.061402988,-0.020503713,-0.1377413,0.10959111,0.13633056,-0.072760716,-0.26915306,-0.45984378,0.16160563,-0.08363431,0.018277276,0.16775104,0.0910157,-0.030049445,-0.09009733,0.056944713,-0.019671278,-0.102668054,-0.009065759,-0.14045556,-0.012323189,-0.0048617683,0.37525237,-0.07208708,0.034437727,-0.3099682,-0.266867,0.06307746,-0.041046683,-0.36141858,-0.05301185,0.09331584,-0.14414372,-0.030365925,0.26314288,0.14894101,-0.09964316,-0.048352726,-0.4087227,0.0016133094,-0.20188984,-0.15994984,-0.018109366,-0.07806451,-0.10431647,0.15143089,0.299807,-0.088490285,0.090086706,-0.079227634,-0.18975161,0.1502774,-0.23311411,0.06973137,-0.018401476,-0.044517886,-0.05762447,0.21124074,-0.1939822,0.14506659,-0.15714477,0.07015124,0.07123269,-0.030151432,-0.09996095,0.045945324,-0.20927241,0.18969963,0.5234904,-0.06863264,0.002041331,0.07550367,0.047506712,-0.059971634,0.014655747,0.083095714,-0.050870515,-0.012429783,0.0058245994,-0.05948798,0.06321857,0.054088905,0.34451076,0.068845,0.06631832,0.025817197,-0.055596862,0.03252596,-0.023710541,-0.06379058,0.06953574,0.04473562,0.0073585548,-0.00012565471,0.00091936777,-0.038389716,0.04451374,0.15308778,-0.040289942,0.26556918,-0.010700224,0.014028879,0.039454702,-0.026509022,0.07145795,0.0972502,0.070421666,0.028177517,0.0010404995,0.030012764,0.55966455,-0.0031322783,0.09305342,0.020814398,0.016988253,-0.052153114,0.015010932,-0.073200345,-0.02050783,0.01930279,0.022241352,0.0765319,0.06075591,-0.027583791,-0.073806144,0.05466653,0.08464514,-0.018646583,0.06630857,0.012706552,0.07335225,-0.026229214,0.0016285666,0.06221731,-0.040843267,0.0943175,-0.06744601,-0.005096759,0.055756636,0.004491097,0.04772655,-0.14697723,0.03480093,0.039195158,0.06945637,-0.032592583,0.018318245,-0.06521851,0.02108892,0.15996324,0.4407422,0.05605347,-0.013027431,0.099250585,0.00564998,-0.033431068,-0.061240163,0.09745194,-0.023223303,-0.029138032,-0.004412876,-0.039835814,0.03206546,-0.026773605,0.34649476,0.020056764,0.036368527,0.29389536,-0.011614003,-0.09994753,-0.005421134,
		-0.09359047,-0.04685555,0.04210919,0.17327712,0.20003852,0.0787759,-0.058004174,0.031954944,-0.059404872,-0.02162359,-0.033443697,-0.52204853,-0.020376528,0.051098716,0.11611007,-0.076616675,-0.010646413,-0.13964172,0.062464885,-0.028732335,0.049435716,-0.01658251,0.03406497,0.04823047,0.0057922914,0.073860765,-0.055438027,0.03191404,0.04478637,0.03844876,0.05757941,-0.047435008,-0.055913117,0.0073571955,-0.04652245,0.029457258,-0.007879396,0.09252834,0.013157982,0.026140725,0.021389684,-0.07543704,-0.053844552,-0.042402998,-0.03610509,0.034108285,0.021871421,-0.01100434,0.052205026,0.0324414,0.052663848,-0.015298381,-0.12078285,-0.04077525,0.01335688,0.09960844,-0.03579308,0.02678781,0.023828803,-0.025549637,0.0253149,0.12720135,-0.013515595,-0.029470246,-0.04947517,0.0011233306,0.042903673,0.030376436,0.060107883,0.098485716,-0.010780087,-0.013174554,-0.032182712,-0.04771102,0.091310956,-0.036741305,0.0027410605,-0.07341506,0.119482964,0.06335527,0.081418596,0.101183385,-0.0069202185,-0.010990451,-0.016058315,-0.1299038,0.13346021,0.11540824,0.01691709,0.03485644,-0.071170464,-0.040077843,0.021474384,-0.2521443,0.0076556634,0.034771472,0.10490762,0.031464867,-0.0065682353,-0.048375852,0.06670311,0.07970823,-0.024384174,-0.0689468,0.2869816,0.21525994,-0.023930768,0.06824784,-0.054660056,0.02116267,-0.0680989,-0.25208887,-0.010840751,0.021184381,-0.020134974,0.0202698,0.007315629,-0.20810443,-0.07049981,0.045212653,-0.012853837,-0.01387166,0.1969366,0.033635847,0.10330303,-0.03522225,0.07203186,0.08225831,-0.22718567,-0.054090515,0.14079432,-0.059153248,0.030964404,-0.03373248,0.02283002,-0.03532855,-0.066600055,-0.0624667,0.13536169,0.0499655,0.0848977,0.027165903,-0.013775903,-0.04617775,-0.060861614,-0.016310258,-0.026805276,-0.05089528,0.0021328055,0.027640045,0.07046828,0.10557972,0.025221089,0.051195733,0.02886738,0.036131192,0.008047602,-0.004992881,-0.025539577,0.05008043,0.0033444692,0.19556002,0.057072226,0.1663925,-0.124060914,0.0030898284,0.041637897,0.19059697,-0.015328244,0.1215553,-0.0134156495,0.009832122,0.096119694,-0.1352301,0.092366606,0.006268233,-0.060657535,0.010587705,0.1673063,-0.13240625,-0.01771097,-0.06016591,0.048168145,-0.023731066,0.08935716,0.10264045,0.075392164,-0.013749094,0.035404,-0.04842176,-0.014399644,-0.09138546,-0.025334362,0.090474345,0.029978532,0.14110214,0.069916695,-0.003419098,-0.006518683,0.020439077,0.12583522,-0.24895719,-0.29068893,-0.26237577,-0.26549035,0.20606846,0.21093912,0.15663701,-0.035855513,-0.02151575,-0.012958451,0.15072864,0.12845907,0.074558586,0.06808028,0.015110485,0.06522123,0.19049643,0.15189561,0.20197763,0.000531283,-0.037817065,0.1979527,-0.094813086,-0.03996859,-0.22567755,-0.029378744,0.09759067,0.0837407,-0.11263093,0.01586277,-0.2199593,-0.14513358,0.21159877,-0.10222352,-0.1831586,-0.28517464,0.05616456,0.02084673,0.080190025,0.28073493,-0.014195005,-0.10967178,-0.14679915,0.077788636,0.071682915,-0.00017069887,0.19180988,-0.1279054,0.14190704,-0.2009014,-0.102713354,-0.04871829,-0.050457556,-0.024396002,-0.111058794,0.121952966,-0.063852936,-0.13185321,0.13144006,0.22213233,-0.390181,0.00069142773,0.17846094,0.21743342,-0.35403916,-0.13280568,-0.1559582,0.06660395,-0.1877888,-0.12889363,0.057438105,-0.11720602,-0.24004905,0.014105803,-0.18801224,-0.03351639,-0.2032304,-0.010181542,-0.29938957,0.17001401,0.03619718,0.054987878,-0.008501336,0.259917,0.0029250297,0.0850662,-0.000824803,0.15831842,-0.1356658,0.04662636,0.11668304,-0.035332303,0.03960798,0.12979347,-0.09748327,0.010493581,0.18398038,-0.098667495,0.05893208,-0.0015205764,0.07315601,-0.024619376,0.15079239,0.19761044,0.00646406,0.0041092206,0.00001677563,0.047738045,0.04651269,0.02965154,-0.44116545,-0.02910807,-0.014948601,0.042970438,0.01331611,0.046856117,-0.31576282,-0.023842344,0.013303317,0.06261444,0.026862556,-0.050200008,0.04170992,0.0054988787,0.022880614,-0.061414197,-0.017647373,-0.10964491,0.00015224647,-0.025055308,-0.077572815,0.03544502,-0.059365407,0.036462415,0.13110223,-0.030089056,0.09811002,-0.078906,-0.1587145,-0.01055649,0.017789992,0.036691453,-0.064036936,-0.074689165,-0.03702603,-0.051535524,0.048847064,0.08101696,-0.152617,-0.017895743,0.0450814,-0.15128718,0.081094556,0.047739446,0.16016276,-0.050376303,0.14651644,0.07549985,-0.027081631,-0.08970332,0.17098062,-0.074585885,0.061239496,0.029106418,-0.10088822,0.12848784,0.09591097,-0.018021904,0.09492766,-0.034052268,-0.0072064404,-0.02771842,-0.13467787,-0.06845446,-0.026107049,0.085409775,0.036331918,0.1050468,0.13501605,0.05514949,-0.005159907,0.051823076,-0.062536895,0.081599094,-0.0020607195,0.02215588,-0.10753305,0.11692069,0.024968632,0.0040320796,0.023519618,-0.060815565,-0.2787441,0.05856562,0.014581189,0.19756778,-0.017149692,0.0024601792,0.011219209,
		-0.06260492,0.033046596,0.10349161,-0.27711257,0.19472253,-0.15985969,-0.048329506,0.038214795,-0.03135965,-0.00063711643,-0.08379358,0.6222557,-0.070963494,0.008401759,0.11264893,-0.024167825,-0.039385024,0.47022688,-0.016914288,0.102595,-0.13948832,0.027745709,0.06358601,-0.08647734,0.059380315,-0.119820654,0.05764953,-0.1281378,0.1264387,0.0041584857,0.09864663,-0.2119895,0.10736166,-0.045176085,0.15971652,-0.22175139,-0.05878281,-0.085204236,0.09003277,0.35224172,-0.21971704,0.014930207,0.11552154,-0.032559067,-0.13535096,0.06831843,-0.038679216,-0.065084666,-0.04584132,0.03764759,-0.43276027,-0.49467415,0.3218103,-0.1076269,-0.102861166,-0.2252462,0.14957435,-0.104644574,0.32332498,-0.04530628,0.033478107,-0.4390181,-0.055124212,-0.046160817,0.03403861,0.23157094,-0.02397422,-0.033223618,0.056082886,-0.058490496,-0.1615804,-0.020127898,0.0062695094,-0.29078925,0.001043274,-0.1895733,0.00786215,0.03747681,0.17199306,0.37487474,0.0031191201,-0.052131165,0.022848714,-0.048086405,0.16192585,-0.008247374,0.41492623,0.13299948,0.09588959,-0.029711124,-0.13071819,0.068007536,-0.049791954,0.27324572,-0.073942214,0.023003133,0.1374538,0.05965383,-0.050144866,0.06401004,-0.055093937,-0.068243854,0.0012975661,0.1703446,0.01874015,-0.241241,-0.086207636,-0.1633195,-0.05263052,-0.055711087,-0.096106045,0.012146336,-0.08079167,-0.06649502,-0.059755567,-0.12989767,-0.012145541,0.28531262,-0.103351116,-0.09627378,0.013765301,0.010616783,0.08332958,-0.04000329,0.15088633,-0.02200261,0.061261956,-0.026490528,-0.20124264,0.0064218347,-0.024272332,-0.026053637,-0.13239627,-0.1267364,0.014830275,-0.011914449,0.106294274,-0.06213948,0.11339828,0.48285338,-0.111379154,-0.038210943,-0.045911428,-0.17245741,-0.048252344,-0.17024781,0.11082891,0.03514789,-0.24232842,-0.18760811,0.14982869,0.0152695505,-0.07199742,-0.19203044,-0.08132387,0.0013893709,-0.102084905,-0.0764989,0.0312772,-0.008230319,-0.00038655743,-0.10155622,0.07376575,-0.116833515,-0.10631489,-0.23967429,0.016688809,-0.51362085,-0.06923862,-0.018237598,0.057300527,0.011295042,-0.053468853,-0.08332099,-0.043922458,0.298427,-0.010139525,-0.0643187,-0.23159418,0.28359002,0.073327,-0.10822665,0.030261768,0.048556834,-0.083126344,-0.20746723,-0.23339708,-0.16754878,-0.089695215,-0.074777156,-0.1881288,-0.055527404,0.009161607,-0.6332339,-0.033643402,-0.018462792,0.18269402,-0.11387728,-0.0386253,-0.016293498,0.14090903,-0.19075193,-0.15335092,-0.013504528,0.21940027,-0.069833055,-0.08202948,0.08683376,-0.015630685,0.057592105,-0.037480187,-0.12765387,0.14785294,0.07353328,0.092905685,-0.14566687,0.06845262,-0.26163188,-0.3135052,-0.017190063,0.13404572,0.20553215,-0.21460445,0.095530026,0.42129958,0.0070944494,0.011657767,0.03080359,-0.117270574,-0.089220025,0.046765696,-0.11927851,-0.09759105,0.049436506,0.018856518,-0.2661258,-0.09634404,0.01874165,-0.050779272,0.13939534,0.24213478,-0.005537271,0.051893115,0.10974533,-0.009280794,-0.26970035,-0.23046187,0.23738551,0.263019,0.37736517,-0.18363091,-0.23895304,-0.21268614,0.24245124,-0.19894363,0.07467329,0.0904901,-0.013182183,-0.4276777,-0.07425385,0.24437971,0.5457106,-0.27365234,0.017438984,0.06460837,0.2715735,-0.06778302,-0.22422142,-0.048545513,0.03021632,-0.009259626,-0.1226976,-0.07698097,0.20935683,0.21484007,-0.3101338,0.04926402,0.034041703,-0.13276055,-0.414886,0.15032518,0.11536417,0.20894647,0.10088072,-0.18817437,-0.122288726,-0.14935386,0.23104282,-0.05797235,-0.023467718,-0.45973593,0.19724217,-0.13495009,0.40454075,-0.029352551,0.03505067,-0.27705902,0.31199974,-0.27298623,0.1493152,-0.014650063,-0.036176886,0.09605726,-0.33203164,0.22036932,-0.18742467,0.055810176,0.116277754,-0.0016418546,0.024240721,-0.11101177,0.3554188,-0.18945225,0.04164526,0.106828555,0.07145692,0.029993584,0.49292657,-0.13935596,-0.060972158,-0.048366763,-0.03043758,-0.08859163,-0.17258306,-0.07578621,-0.115159735,0.04646247,-0.08142988,-0.39923674,0.02552109,0.026094249,-0.33624262,0.07786728,0.047700692,0.10156819,-0.44215098,-0.034245484,-0.069232896,0.15919816,0.235572,-0.30076003,0.031809382,-0.029713659,0.019052422,-0.21759263,-0.19528535,-0.004474104,0.0016083983,0.016709933,0.020749146,-0.5359916,-0.7365755,0.23107325,-0.08863163,-0.058179628,-0.23378204,0.093139194,-0.17159054,0.24143045,0.009749415,-0.13734552,-0.30835247,0.11719976,-0.076578036,-0.03554089,0.18025576,-0.029103704,-0.1618814,0.040699255,-0.07952526,-0.2261708,0.0026220265,-0.038973995,-0.44064838,0.03894477,-0.033921186,0.039582536,-0.02604045,0.34604385,-0.14742804,-0.028300848,0.0149609065,-0.06257534,0.06358485,0.11283419,-0.047576472,0.376597,0.17964728,-0.066939,-0.039835222,-0.15620403,-0.024619976,-0.0548716,0.1871513,0.007356492,0.023547234,-0.019087939,-0.04022535,-0.08228301,0.1695138,
		-0.07564964,-0.11667362,-0.06203676,-0.013137603,-0.33002847,-0.25666168,-0.053977475,0.06916902,0.06978834,-0.03992417,-0.06549192,-0.1793712,-0.06778449,-0.037544917,-0.036790375,-0.041910436,0.084126025,-0.49725786,0.016464923,0.05701578,-0.0020251651,-0.03706173,-0.3118438,0.050455607,-0.14231999,0.040353645,0.06708695,-0.06443804,0.019400613,-0.05179471,0.013035713,0.38867676,-0.073662385,0.043078717,-0.087099455,0.020298366,-0.42857128,0.007921564,-0.16870715,-0.30497918,0.06948462,0.025193652,-0.0005310777,-0.041216567,-0.034525692,0.01428683,-0.07569823,0.057876542,0.013644078,0.111219466,-0.019028168,-0.21706659,0.21735367,-0.030675927,-0.10790359,-0.059426405,-0.18946344,0.030037854,-0.08349655,0.09484844,0.020497808,-0.612408,-0.0151778655,0.013945995,0.0011937155,0.0003463617,0.06562296,-0.34856978,-0.002598855,-0.0018658505,0.12042822,0.024288781,0.027627314,0.34593132,-0.11169129,-0.13957433,0.033332463,0.06161413,0.11489968,0.06257977,-0.0012257643,-0.040543206,0.09191973,-0.014028769,-0.16399343,-0.17044374,-0.095255144,-0.29367524,-0.029456036,-0.073786326,0.104078606,-0.023860646,-0.04144921,-0.00052631076,-0.029289864,-0.03060692,0.024458537,-0.17180379,-0.037224527,-0.11467031,-0.02369921,0.0019236574,-0.035587173,-0.11959992,0.12091351,-0.06634054,-0.0023439482,0.01935766,0.15324457,0.054519463,0.050332095,0.052696098,-0.039272938,-0.0016231263,0.008916088,-0.001286397,-0.0024576134,-0.073254,-0.03740858,-0.034321222,0.012614134,-0.0872549,-0.06363135,0.010330561,-0.12414811,-0.021786427,-0.13120754,-0.036201183,0.18339686,0.020220494,-0.007733611,0.13111,-0.104226045,-0.0053081624,-0.043594483,0.03999545,-0.4497001,0.0018019791,-0.19914798,-0.08601258,0.11072472,-0.054039035,0.06681448,0.059264377,-0.06024625,-0.01631895,0.0024596034,-0.10792476,-0.060037445,0.022482594,-0.0035076244,-0.0786656,0.14373389,0.04131849,-0.10976854,-0.005467602,0.024331372,0.016069796,0.057961237,-0.037291184,0.06339046,-0.28552464,-0.054970074,-0.026832618,-0.020338114,-0.10383159,-0.04336388,0.006402505,-0.014646172,0.015764097,0.0030619223,0.0492197,0.080670044,0.20615655,0.15296039,-0.04313722,0.015455888,-0.07220725,0.14932357,0.42577955,0.00223549,-0.050014112,-0.086938255,0.04718375,0.010368919,-0.26391166,0.09308036,-0.51852214,-0.07237273,-0.08159098,0.03634405,0.018427193,-0.062528975,-0.0061883014,0.0546133,0.0022067595,0.14734893,-0.13463265,-0.060620766,-0.041110888,0.13040678,0.008669543,0.25280154,-0.26313555,-0.10442402,0.34399232,0.073885776,0.1241404,0.20875241,-0.00725745,0.13190226,0.035198312,0.30341756,0.08243101,0.061982956,-0.30721366,-0.27794334,-0.2680016,-0.3353677,0.114525765,0.07796972,-0.29587755,-0.07264984,0.09687588,-0.09128632,0.15615088,-0.07279395,0.025612216,0.09307956,0.1917543,-0.15783726,0.16971481,-0.34940377,0.17165098,0.12000411,0.16455255,0.6220341,-0.18025304,-0.38546616,-0.14540802,0.044794563,-0.045553107,-0.2786927,0.017007109,-0.4248526,0.08035992,0.15290466,-0.23688552,-0.120712966,-0.11554494,0.055614326,0.12581994,0.3048304,-0.057463586,0.17656887,0.3912063,0.2488303,-0.039538402,0.40186992,-0.19752012,0.07293284,0.2187226,0.11847037,-0.06670456,-0.038768876,0.02695564,0.17451572,0.26586232,-0.025939234,-0.01575441,0.15333717,-0.059359007,0.25779146,-0.07226485,-0.080236964,0.5005511,-0.15076995,-0.12132329,-0.03679798,-0.33134943,-0.24758202,-0.13956496,0.016745742,-0.09461714,0.1649019,0.6939678,-0.052839626,-0.4405078,-0.015710002,0.09564406,-0.048752166,-0.055421513,0.12043201,-0.4201916,-0.067613386,-0.3127327,-0.09874374,-0.15553498,-0.15979238,-0.37307337,-0.15679415,-0.1351636,0.009473154,-0.0007115988,-0.35426575,-0.5938054,-0.064991094,-0.044987354,0.04188405,-0.018167544,-0.005802276,-0.13266906,-0.034414865,-0.17613114,-0.13123418,-0.013841566,-0.030946994,-0.18029115,-0.07682321,-0.03135791,0.012425932,-0.16553971,-0.19979724,0.012301691,-0.1499063,0.096568204,0.08264649,-0.09539316,0.35208276,-0.15921049,-0.07897097,0.58813995,-0.1433206,0.08564243,-0.066215046,-0.188881,-0.39749208,-0.09837594,-0.21653579,0.2709301,-0.008589246,-0.089717425,-0.04759605,0.031607382,0.058311578,0.085424505,-0.09698506,0.033561196,0.013050504,0.10008776,-0.04838757,-0.06152328,0.096705414,-0.06724109,-0.16126138,-0.043068014,-0.11928084,-0.042721085,-0.19087,0.029443732,-0.039092533,-0.6437413,-0.020028409,0.06680321,0.05705576,0.057432264,0.05306116,-0.3580126,-0.036072034,-0.13185112,0.13356772,-0.027935594,-0.041364342,0.52499115,-0.24832724,0.029351654,0.012630121,0.043935068,0.020596705,0.5101105,-0.013667833,-0.15320094,0.01790676,-0.018542085,-0.13327527,-0.3469499,-0.07670187,-0.47149363,0.0007050257,0.010818637,0.03691494,-0.031870734,0.046239514,-0.33625773,-0.04150516,0.033077266,0.07527243,0.07780133,-0.015736485,-0.16497178,
		-0.031989135,0.10330816,-0.03677151,0.26974064,0.3549075,0.1689522,0.045367677,0.093068205,0.034726616,0.0577496,0.02940207,-0.43460274,0.05235616,0.0021572285,0.13583656,-0.04878567,0.085273035,-0.19046928,0.03137778,-0.03363414,0.050160706,-0.08025757,0.18969692,-0.03726699,0.10166613,0.14836434,-0.031693865,0.015433592,0.14454249,-0.03408403,-0.00025668665,-0.20275593,0.17020167,-0.11772317,-0.026430136,-0.13431834,-0.04509661,0.11192508,0.010742699,-0.13840565,0.09007207,-0.04951265,-0.054941807,-0.07746165,-0.012009583,-0.029779058,0.007463515,-0.06702528,-0.0905177,-0.020991957,0.29136106,0.042430185,-0.31511077,0.08407896,-0.0061876914,0.09516943,0.05496505,-0.0038311826,-0.075334474,0.06839435,0.066705786,0.39686793,0.021166608,0.02292785,0.06299725,0.15742467,0.032482445,-0.0007833095,-0.01917653,-0.0072369725,-0.36147448,0.015891312,0.009208258,0.042496476,0.06934141,-0.46410906,-0.018083801,0.03039561,0.13654403,0.0839204,0.123016246,0.025444431,0.09562256,0.027880171,0.04113797,-0.07039632,0.20310105,0.31430918,0.011094193,0.04566905,0.07408311,0.038489327,0.04957567,-0.11494304,0.07867901,0.108339384,0.19167332,-0.10344885,-0.087057486,-0.009398115,0.07218022,-0.037143122,0.17200114,0.118700504,0.26631606,0.4404486,-0.004620628,0.047944054,0.031038238,0.049837153,-0.034733832,-0.017033052,0.057967007,0.067680866,0.08496627,-0.0063749435,0.014044091,-0.22364268,0.021680629,0.008278298,0.03429202,-0.027451059,0.39058304,-0.03777376,0.13317914,-0.047126997,-0.0043682666,0.018515456,-0.22974461,0.045287065,-0.01615587,-0.15669383,0.10818648,-0.021255258,-0.11685577,0.24650344,0.018533325,0.058405247,0.041268334,-0.03665095,-0.013263459,-0.0029728205,0.0028344705,-0.03556869,0.026541349,-0.095828325,0.021335576,0.14607584,-0.03741061,0.024010591,0.4464144,0.41372377,0.2769705,-0.01292168,0.10167636,0.021280054,0.10839371,-0.0023526405,0.13036287,-0.013318051,0.0040937387,0.12264332,0.09248412,-0.06052789,-0.054503374,-0.028805694,0.062689714,0.07087989,0.014855328,0.06324963,0.07887606,-0.064894855,0.105729796,0.04679407,0.1412552,-0.06958251,-0.033309307,0.04758113,-0.1653308,-0.021119628,0.091398776,-0.12024773,0.0050800317,-0.09032571,-0.06756765,0.17159182,-0.093043506,0.09980929,-0.015842361,-0.016599573,-0.019061327,-0.023327552,0.0043438417,0.24955156,0.037730478,0.040657207,0.048445236,0.018930059,0.04603609,0.014098724,-0.255895,-0.15711755,-0.110970125,0.20475447,-0.56675637,-0.38540134,0.072612144,0.11636979,-0.14778465,-0.00025172305,0.12961678,-0.17985062,-0.16153385,-0.17970721,0.24064012,0.02586562,0.0050824573,0.36951172,-0.2867034,-0.04246528,0.14396103,0.18988205,0.037611138,-0.2111057,-0.20377184,0.013966636,0.06523731,0.104506,-0.00735927,-0.13681597,-0.029404739,-0.11734466,0.20619541,0.19023034,0.21154618,-0.5656331,-0.1551679,0.23884293,0.50065756,0.23475257,-0.055724557,0.026662461,-0.06972926,-0.098015115,0.23193167,-0.113138385,0.2538014,-0.17891465,0.026303109,0.13433637,0.16140813,0.15805219,-0.23868465,0.124763526,-0.4498665,-0.16263139,-0.09379827,0.17520264,-0.41479018,0.12159841,-0.18297398,-1.1033452,0.05662781,0.1481966,0.13181585,0.1476884,0.08203625,0.15518501,0.14953117,-0.019196497,-0.24658975,-0.268231,-0.1476105,-0.08974561,-0.11206378,0.38529986,-0.06955176,-0.056300286,0.1438087,0.17566559,0.10753403,0.09348613,0.051050663,0.0008120061,0.1178684,-0.19545414,0.1426573,-0.13225937,0.08581033,-0.23440549,-0.13157003,0.33666328,0.059841264,0.14651997,-0.016954713,0.2115635,-0.30497628,0.47633797,-0.23195241,0.10241543,-0.082256526,-0.07576935,0.0942729,0.36851352,0.5883648,0.19919218,0.09790251,0.22364879,0.034901273,0.025240783,0.082572736,0.24520305,0.0507797,0.053235225,0.1780155,-0.050905533,0.10481491,-0.49739626,-0.04545534,0.039239585,0.11160052,0.0037233436,0.36508277,0.056758925,0.018115403,0.039864868,0.057970595,0.019020215,0.13742533,-0.02226991,-0.15949474,-0.029104525,0.19734219,0.013888801,0.04156249,-0.014465688,-0.085586496,0.11400535,-0.05834756,0.09495639,0.025420034,0.044062868,-0.023331322,0.0020374316,-0.093486294,-0.10038444,-0.0037519939,-0.082435,-0.070140205,-0.005112165,0.24077815,0.29225346,-0.28843418,0.03443179,0.034056548,0.10192577,0.18450806,0.030099723,0.11804681,-0.0475892,-0.13829793,0.1876078,-0.06563198,0.009444451,-0.06788597,0.16484015,0.03474789,0.03499088,-0.06817344,0.009986456,-0.2760189,0.046709843,-0.07936589,0.037915163,0.05727245,0.044025704,-0.052741054,0.10667459,0.23436083,0.4525534,0.09708232,0.032234102,0.07784474,0.06798329,-0.0024200391,-0.21077107,0.32118222,0.15545668,-0.074471205,0.00740598,0.08627094,0.044318963,-0.0032686028,0.20906545,-0.062362902,0.07765796,0.07737723,0.00676352,-0.10277272,-0.034805145,
		-0.0050550727,-0.021947602,-0.06936532,0.07217819,-0.12561306,-0.01118339,-0.044709228,0.009337452,-0.03208099,0.011614511,-0.010713533,-0.046189405,-0.007790651,-0.0019693256,-0.010923008,-0.0016674652,-0.004671754,0.21508968,-0.025141064,0.008226955,-0.06947327,-0.036918405,0.14710882,0.045211993,0.018918425,-0.115433596,-0.029052405,0.016243704,0.080746725,-0.020889178,0.07645564,0.047021594,0.024029689,-0.1009266,0.08688826,0.008270681,-0.060823794,-0.0849252,0.0921257,0.0153244,-0.06059714,-0.016370928,-0.071872465,-0.05864595,0.058113232,-0.013170546,0.060968846,0.06313274,-0.009521791,0.04917771,-0.023311155,-0.0006889432,0.0734411,-0.024424324,-0.018196184,-0.022316553,-0.0006290727,0.016471343,0.12937905,-0.021618567,0.019055469,-0.124447115,0.090181574,-0.09673334,0.08992655,-0.08968993,0.045034736,-0.017577076,-0.0044688825,-0.039258674,-0.043714438,-0.071338214,-0.020431854,-0.090723634,-0.026882429,0.12841226,-0.016329883,0.062182873,-0.087550804,-0.16337298,-0.10659079,0.035511438,-0.06545624,-0.026291074,0.044196077,-0.011004367,-0.042439446,-0.036649186,-0.06940539,-0.053308614,-0.06279279,-0.037543043,-0.02417954,-0.060168643,0.111232184,0.029443612,0.01730848,-0.02453364,-0.034064643,0.00937468,0.008517491,-0.00079937,0.019895954,0.22306947,-0.11543543,-0.03521869,-0.016738374,-0.08424064,0.024171686,0.011736935,0.037780598,-0.08343886,-0.03107258,-0.014629087,-0.049859192,0.088020585,-0.08543321,-0.049973343,0.076045096,-0.048706017,-0.1482622,-0.060293697,0.16059609,-0.018419854,0.043670513,-0.018892191,0.055173717,-0.062246237,0.1212895,0.03780325,-0.07978748,-0.009988137,-0.030225934,0.07221124,-0.001055658,-0.050067592,-0.008628875,0.0070425146,-0.0046926048,0.040858068,0.092002615,-0.0079210065,0.012836057,-0.035740428,-0.03781155,0.087284766,0.01906649,-0.037849646,-0.051377997,0.0073877727,0.1257818,-0.045973063,0.01735406,-0.026958076,-0.074692704,-0.025422098,0.038804185,0.0074068173,-0.0145055475,0.005302142,0.0661816,-0.10834683,-0.14141126,-0.07927113,-0.050813984,-0.0081061125,0.047582448,-0.099756815,0.014223252,-0.049939457,0.06766503,-0.0028916376,0.021420766,-0.033443585,-0.025686013,0.0358366,0.0023493005,-0.110722795,0.002641737,-0.073407464,0.009045719,-0.026275149,0.018968739,-0.058191605,-0.034396905,0.08681719,0.07252299,0.07313848,-0.043284595,-0.042933457,-0.007094504,-0.08276129,0.020647584,-0.20299977,0.024632022,-0.011912449,0.039853282,-0.080607496,-0.0576829,-0.014704662,-0.06827491,-0.07210914,-0.07365785,0.12648436,-0.22215666,-0.094859086,-0.7441719,-0.07039781,0.06756971,0.14834177,0.33767942,-0.015193065,-0.010302002,0.021654697,-0.018429397,-0.1428416,-0.050054096,-0.13834065,-0.12913205,-0.14133713,0.14254168,-0.09059809,0.062212233,0.25015348,-0.08551239,0.2563533,0.05716211,0.09840062,0.095509276,0.054689743,0.008628651,0.16631775,0.060301196,0.08029795,-0.07182895,-0.256621,0.23075758,0.1377545,-0.037344333,0.042735778,-0.09544861,0.043774262,-0.035217807,-0.23178174,0.014804939,-0.040081587,0.015285239,-0.15164106,0.106639974,-0.19297361,0.20475642,-0.016673757,0.14570948,0.23436292,-0.2094596,-0.0350843,-0.14648849,0.10187677,-0.16947384,-0.22724138,-0.15790536,0.15164982,-0.019180018,0.03242236,0.022632243,0.13815804,-0.043117844,-0.30275124,0.107189,0.038171407,-0.13974905,-0.11493464,-0.018940046,-0.008245034,0.14157912,-0.09549006,0.032842126,-0.0035764193,0.39854166,0.11905196,0.046711013,-0.075356506,0.22644965,0.06447318,-0.20191422,0.13927893,-0.44075102,-0.30772206,-0.12055896,-0.036333486,-0.123768896,0.07040385,0.13882075,-0.17493436,-0.09310476,-0.04939695,-0.27502427,0.5052343,0.06551273,0.087581374,-0.030220019,-0.004294554,-0.015662687,-0.04710253,-0.07849507,-0.02767806,-0.045825392,0.004187761,-0.04499655,0.0044321017,-0.059402093,-0.27244008,0.056725066,0.0012289728,-0.056138534,0.029646209,-0.056509778,0.20499742,-0.066324085,-0.07551772,0.15117699,0.084382065,0.37273875,-0.09150163,0.097738445,0.044628236,0.027713073,0.038704585,-0.16678925,0.049394313,-0.0010968145,-0.073305525,0.010597883,0.017018188,-0.037498888,-0.10269058,0.042092923,-0.05050221,-0.06462115,-0.07125564,-0.03303109,0.025872888,0.048384517,-0.05813114,-0.055878434,-0.06019913,0.04658858,-0.040676296,-0.0073748776,0.11671681,-0.15665074,-0.17916559,0.05648379,0.023920497,-0.034750953,0.048072204,-0.039038047,-0.036863692,-0.03143592,0.06545173,0.041632067,-0.2856356,-0.03829795,-0.021953233,-0.042461317,0.032566138,0.0115781855,0.05301765,0.009576201,-0.0078032473,-0.06277851,-0.020331984,0.045266777,-0.14197542,-0.057019226,0.097203076,0.019419681,0.00050226954,-0.039545987,-0.40849936,0.0030848458,0.037581727,-0.0062264367,-0.06582207,-0.053769477,0.051724777,-0.03519853,-0.09271529,-0.029279362,0.007308386,0.05053893,-0.08559951,0.074997075,-0.12088284,-0.03790425,-0.045791075,-0.060183357,0.007679887,0.005840133,-0.016351506,
		-0.0644053,0.04092787,-0.04568205,-0.0032433614,-0.11594194,-0.006368443,0.08281036,-0.025025375,0.0358333,0.057361003,0.016870087,-0.27594873,-0.10970531,-0.007874993,-0.107020505,-0.005792486,-0.058775987,0.25662577,0.06401476,-0.09146848,-0.015552042,0.03464667,0.08980987,-0.10512774,-0.07323997,0.04785982,0.035007972,0.023404434,0.020535408,-0.021066723,0.037669867,0.032690752,0.106075756,0.026485275,-0.035186738,0.013104854,-0.052560613,0.11469722,0.09258831,-0.8682861,-0.06896644,0.067210354,0.009482044,-0.10899204,0.0004555968,0.002324513,0.08096612,0.0015923996,0.041029878,0.10586336,-0.10588086,0.13116397,0.04989915,0.017564995,-0.15278038,-0.016052153,0.014519011,0.0008408366,-0.023166433,0.029835315,-0.07587153,-0.2621995,0.017319223,-0.010943967,-0.04734275,-0.084431686,0.06115103,-0.021175701,-0.012481038,-0.047803424,0.12255941,0.015695546,0.050754715,-0.028621841,-0.10774444,-0.24816838,0.073549084,-0.02301232,0.020133797,-0.3354268,-0.01620139,-0.05248345,-0.028271874,0.0323739,-0.14350244,-0.04944114,0.13151532,-0.37175676,0.030587293,-0.10442021,0.014015931,0.0041011954,0.015061037,-0.32734916,-0.04566984,-0.029414676,-0.16220017,-0.03867061,-0.015140976,-0.07465592,0.07118787,-0.0068544094,0.05348439,0.20298581,-0.054250285,0.14450677,0.0114086345,-0.09198999,-0.029042097,0.032018334,-0.012771195,-0.25671333,-0.02909287,-0.06377751,-0.02243248,0.01993407,0.05431325,0.008255195,-0.071135774,-0.0650433,0.021041952,-0.011661194,0.20097542,-0.034079902,0.025787722,0.021624902,0.01997363,0.029000869,-0.058464415,-0.00889203,-0.02445695,0.1155806,-0.017080171,0.046275582,-0.0034181965,0.057137214,-0.18533549,-0.04579706,-0.05592666,-0.18672734,0.08602582,0.08080402,0.036575824,-0.107039444,0.04633681,0.11273311,-0.012876883,0.012166723,-0.050444767,-0.046650853,0.13549627,0.054175112,-0.03216193,0.019070428,0.06847812,0.037854236,-0.00799289,0.01190301,0.024053462,0.044228505,0.038400363,-0.12307841,0.01682916,-0.06558219,-0.03424393,-0.03524114,-0.014923165,0.09879252,-0.0024479653,0.0025470143,0.038289018,0.01222126,0.066037424,-0.006793176,0.07485794,-0.10825291,0.016209707,-0.01615492,-0.07277243,0.102756664,0.048986007,0.057603147,-0.13492203,-0.060534265,0.03582872,-0.011614385,-0.016029742,-0.27578548,-0.01023388,0.0385594,0.115911804,0.054286752,-0.02604986,-0.24699996,-0.006394617,0.04653997,0.019610036,0.0012884226,0.109748244,-0.06497078,0.014551871,-0.33333638,-0.321884,-0.3353743,-0.17518725,0.26048404,0.10875596,-0.839057,-0.22894122,0.31345522,0.34852785,0.08576623,0.366038,-0.048660576,0.2799598,-0.14818124,0.18459141,-0.07184537,-0.21424678,0.061621238,0.32535434,-0.13739525,-0.25110385,-0.04236177,0.06354996,-0.13668494,0.07684647,0.28811225,-0.015210949,-0.17298953,0.06554134,0.13804895,0.2545168,0.38580817,-0.27956468,-0.39687043,0.19410025,0.549325,-0.18393701,-0.028540462,0.0853285,0.14186352,0.052207883,0.061765246,0.14436787,-0.13474959,-0.1257419,0.090170205,0.3087209,0.0839475,-0.44399217,-0.3829582,-0.35552692,0.16393,-0.3715169,-0.5255395,-0.05580698,0.105047956,-0.3301147,-0.013580848,0.29207587,-0.0046850177,-0.10915727,0.25996676,0.23364632,-0.32173124,0.06313144,-0.41129062,0.18446581,-0.03244599,0.019999202,-0.22456044,-0.21476144,-0.37096354,0.35648537,-0.27876163,-0.06097487,-0.18198556,0.44641122,-0.21712434,0.56028223,-0.23237532,-0.24815509,0.24215467,-0.16597314,0.30007574,-0.39542016,-0.32008645,0.29512852,-0.15606299,0.22534649,0.103788525,-0.14922628,-0.1981959,0.09611002,-0.08069879,-0.4332036,0.47434476,-0.13741985,0.06361615,-0.05856469,-0.050096147,0.14625989,0.28550804,-0.22129941,-0.24160066,-0.06897898,0.068638094,-0.039896946,0.04903552,-0.03228734,-0.28583348,-0.10616556,0.0025517489,0.068082236,0.033528525,-0.09291564,0.19848053,-0.0079994295,-0.020770235,-0.043665886,-0.04844796,0.37141028,0.0469589,-0.12068624,0.011712505,-0.080853336,0.0048290207,-0.06957781,-0.018551107,0.020834768,0.11388287,-0.054448575,0.10472581,0.121265166,0.141699,-0.057371166,0.017722456,0.22755228,-0.31393072,0.02892703,0.007643086,-0.09905545,-0.25096184,-0.122769244,-0.008388739,-0.017626803,0.07766871,0.0010136926,0.024301073,0.18766414,-0.041173283,0.096891195,0.08390758,-0.017316416,0.19098973,-0.03832418,0.048136003,-0.001691994,0.033395752,-0.010033356,-0.3013864,-0.022331845,0.07487019,0.03668103,0.02601076,0.012911175,-0.048054162,0.06866186,0.008750147,0.105924614,-0.0633956,-0.08871348,0.05322394,-0.026044438,-0.26449147,0.048727743,-0.13119689,0.11386298,-0.025597217,0.011644853,-0.07040936,0.028831197,-0.080055326,-0.092048824,-0.019401953,0.023468249,-0.29987183,0.12800986,-0.03217054,0.07949466,-0.0044234144,0.04300961,-0.31717354,0.013303835,-0.10651675,-0.0744698,-0.05562056,0.014179287,-0.059335444,
		-0.04547419,0.015471581,0.07581088,0.034149315,0.019487299,-0.000033913173,0.03829732,0.1269475,0.04778324,0.03324012,-0.024000725,-0.23351082,-0.023202484,-0.07618252,0.08485938,-0.020864196,-0.03499975,-0.050591365,-0.029762732,-0.1574591,0.06890458,-0.065258496,-0.06052041,-0.08198537,0.03941184,0.08027144,0.012066196,-0.08785863,0.033121508,0.033306755,-0.03868684,-0.06918969,0.027819648,0.00667214,0.10012461,-0.07598603,-0.09355851,0.064730145,-0.007088617,-0.1267845,0.030747736,-0.052693687,-0.084938176,0.035771333,0.09049925,-0.08215294,-0.00559371,0.06909975,0.0641395,-0.0114073,0.0022426182,-0.03256799,0.034388483,-0.031956848,0.006804229,0.053884562,0.0952464,-0.007867081,0.14203806,0.043862592,-0.039502796,0.1081962,0.0051127803,-0.010166906,0.040522598,-0.009045257,-0.09292673,0.011623736,0.094070435,-0.056292947,-0.12490515,-0.0008852669,0.03281711,-0.11648572,-0.05969438,-0.15443929,0.017550994,0.11222918,0.06396794,0.15124148,-0.0554241,0.028661313,0.11025533,-0.008177445,0.12685063,-0.09055172,0.075610004,-0.017357262,-0.062403694,0.11763844,-0.032992817,-0.042840093,0.006907553,-0.06479873,0.0032226555,0.030191848,0.07179924,-0.040364303,0.014236247,0.0023623947,-0.032394692,0.0031897593,0.06732678,-0.035570305,0.11259073,0.055332944,-0.016184332,0.007007293,0.03163677,0.0036765055,0.048283264,0.002040822,0.10596683,0.10432074,0.056667592,-0.008144129,-0.04933433,-0.050288733,-0.08153705,0.01167086,0.006229288,-0.007506182,0.046181582,-0.06565067,0.018439585,0.0010829405,0.023822607,0.029145658,-0.15770982,0.06912484,-0.042255674,0.022877136,0.013860874,-0.07681816,0.04536652,0.052627947,-0.086150564,0.022918308,0.07593458,0.13854936,-0.035420906,-0.035717867,0.038462877,-0.04462794,-0.006092553,0.03716796,-0.02565882,0.011409294,-0.008415273,-0.03648254,0.070479445,0.15457256,0.08801799,-0.013411477,-0.00485433,-0.013143143,-0.023057112,0.05244207,0.028279735,0.05504993,0.048514374,0.12338537,0.06649547,0.06971141,0.017692871,0.028864656,-0.007638349,0.09359811,-0.030127527,-0.033669237,0.006695269,0.023412889,0.025796443,-0.14972222,0.078093626,0.09794217,0.046140227,0.066395804,-0.02199282,0.28242803,0.077154,0.030283013,0.004237533,0.051497877,0.05803107,0.09108113,0.080344595,-0.13676645,0.02244558,0.0797728,0.04561349,-0.02283801,0.03887937,-0.12759641,-0.04766181,0.104882374,0.110594094,0.07435663,0.025958197,-0.030602453,0.18164447,-0.07600705,-0.08636508,-0.19429356,-0.070817254,0.050992794,0.09372993,0.25108558,-0.55287045,-0.09280455,-0.16525689,0.22048396,0.020944867,0.031877138,0.015267095,-0.024878677,0.121976696,-0.12317896,-0.00198221,0.24654904,0.07073283,0.11312495,0.24011047,-0.13938932,0.07678141,-0.27893552,0.105675206,0.1256479,-0.045483433,-0.07456352,-0.03832616,-0.1844366,-0.08676422,0.048642833,-0.041850463,0.030086322,0.16605741,0.04534669,0.21620202,-0.0019391384,0.49243224,0.08221523,0.02402391,0.060197547,-0.01708456,-0.22573298,-0.06358758,0.17735723,-0.027730081,0.38262746,-0.18869191,-0.1617141,-0.19901778,-0.0059099873,0.012819053,-0.16466647,0.09368886,-0.18458621,-0.248026,0.17050257,0.16977814,-0.14251213,-0.07624971,0.21186155,0.24953482,-0.16815782,0.045591306,0.071851864,0.18270229,-0.16242784,-0.08096253,0.065223515,-0.11075804,-0.025779309,-0.06439612,0.054962408,0.058812995,-0.114727326,-0.30617708,-0.4228012,0.12980233,0.15664153,0.039750155,0.012745614,0.1189426,-0.0022275334,0.1969441,0.10728066,0.1415559,-0.05587163,-0.022156743,0.12468638,-0.047419693,-0.10557715,0.16071534,0.0722204,0.09264126,-0.055292025,-0.28352654,0.06373892,0.0010613173,0.006649915,0.067558005,0.019815698,-0.021883564,-0.007999047,-0.08411278,-0.010992052,0.048750397,0.0054703546,0.06893007,-0.051968466,-0.020132508,0.023676226,0.046113554,-0.038392626,0.12189366,-0.10053885,-0.04734054,0.019501142,0.016073657,0.018948678,-0.11239903,0.099139646,-0.097007,-0.07787214,-0.07287058,0.04289365,-0.29007557,0.013968031,0.030550065,0.015225932,0.03604492,-0.025922079,0.01160592,0.0033674317,-0.009676849,0.032806627,-0.025662225,-0.063070655,-0.00075961597,-0.018523838,0.050374627,0.12928818,0.07417394,-0.051859107,0.074533075,0.037842043,0.085292436,0.020167688,-0.003188204,0.019465342,0.10944326,0.15060224,0.017377565,0.09897295,-0.05794418,-0.0039629466,0.097316235,-0.05026335,0.023701357,0.026420139,0.0338726,0.027356816,0.054605845,-0.009964184,0.0009936069,-0.08804045,-0.015531598,-0.031715643,-0.07937031,-0.024163814,-0.01953987,-0.11005585,-0.044289734,-0.07287154,0.067433834,0.11622019,0.14323246,0.21360336,0.014778169,0.08828325,-0.04176853,0.01504972,0.009388645,-0.048495427,0.121256396,0.040624797,-0.15483801,0.06972252,-0.039446063,-0.030288825,0.102927186,-0.109012164,0.06378385,-0.007915098,0.16905053,0.08782261,0.046116266,0.029426942,
		-0.060349513,0.02573931,0.013216419,0.051907577,0.0880185,0.0025247703,0.094508514,0.09463805,-0.016858062,-0.02991069,-0.010126181,0.08084496,-0.06611193,0.024651423,0.0069625936,0.04996363,0.12037237,-0.24854302,-0.019594241,0.002304523,-0.0076510264,-0.004073094,-0.23426113,-0.009621407,0.04646122,0.015667958,-0.059071265,-0.08862496,-0.03546598,0.031492315,-0.05903809,0.0072517293,0.01709646,-0.023834262,-0.10240125,0.05209962,0.0012417566,-0.08806274,-0.05776372,0.36210126,-0.07012435,-0.009888474,0.00445709,-0.04823875,-0.09896784,-0.031356666,0.046394154,-0.0144280605,0.02779283,-0.03940599,-0.02126494,-0.05433007,-0.025260616,0.061806202,0.02190229,-0.0696927,-0.06274586,0.040992983,0.0380367,-0.050085198,0.037749056,0.095653065,0.009532662,-0.022711307,0.03582198,0.023580268,0.003028588,0.015251525,-0.008367563,0.008774636,0.05133543,0.015908372,0.08215341,0.03442646,-0.0043377685,-0.037543647,0.053281993,-0.035885494,-0.038419068,0.10435957,0.026985778,0.026281064,-0.02416529,-0.021160873,0.030201254,0.012776819,-0.084312156,0.045405943,-0.046670992,0.032265145,0.02545728,0.006288274,0.016196858,0.13961154,0.028727682,-0.10332689,0.049725763,0.06299343,0.017285354,0.103376694,-0.0036558155,-0.044995185,0.058515325,-0.06811559,0.11337373,-0.008607711,0.0016531114,-0.05206393,-0.02157326,0.016557,0.07693218,0.065021165,-0.017529065,0.16694644,0.006903448,-0.0058632353,-0.0169129,-0.06151827,-0.0045600734,-0.014040544,0.040818714,0.06380659,-0.09214307,0.07504307,-0.035812482,-0.009209987,-0.087901585,-0.06412427,-0.20802338,-0.08173056,-0.0869361,0.002138216,0.008454898,-0.02418674,-0.011915819,-0.13694076,0.011636718,0.042468335,0.023819644,0.14532253,-0.16283563,0.11972901,0.024830649,-0.026848853,-0.007701272,-0.023996888,0.1166647,0.0772644,-0.04253365,0.022219729,-0.040433094,0.04527732,-0.08651473,-0.04495697,-0.021883624,-0.024261998,-0.017642904,-0.08383387,-0.067704566,-0.014866788,0.06662673,0.14860114,0.019013608,0.027814964,-0.014547447,0.082938716,0.09557665,-0.046367403,0.029594848,-0.10558089,0.10367701,0.012742958,-0.03916029,0.12134503,-0.0045403005,-0.057386223,-0.00088780693,-0.029076306,0.041067142,-0.008056157,0.051388126,0.04769313,-0.010736634,0.09286189,-0.07039006,0.03719976,0.04587753,0.046228375,0.0051201493,0.018076828,-0.018600395,0.03910115,-0.013197538,0.116229445,-0.10726679,0.01687157,-0.009814827,-0.021189893,-0.0016196389,-0.024287095,-0.065166235,0.21804641,0.19298439,0.00783245,0.04072574,-0.075162016,-0.004091614,0.25313738,-0.04676783,-0.7875057,-0.2346876,-0.05447232,-0.13083602,0.1284314,-0.12445897,0.078021355,-0.10865966,0.07283399,0.13534707,-0.036756784,-0.17994195,0.037259188,0.05567154,-0.03811248,-0.11454364,0.07389612,0.012331406,-0.19271438,-0.11226454,0.11636729,-0.08367293,-0.0913109,-0.13771984,-0.2996376,0.30097425,0.3907227,-0.19160596,-0.28655672,0.0693843,0.003606244,0.05059339,0.087019995,0.006058623,0.077299885,0.028412616,0.029888641,0.036313448,0.030440403,-0.13344646,0.029205706,0.086731456,-0.02017347,0.033523932,-0.1886741,0.22194725,0.20118728,0.1527732,-0.07760078,0.19173253,0.07884214,-0.09968776,-0.00019138171,0.068695664,-0.16197969,-0.047637757,0.108727865,0.03641054,0.31989664,-0.018528663,-0.0894334,0.05749981,0.10857298,0.06326632,0.2951105,-0.18096219,0.08408508,0.015565733,0.00073868467,-0.25663316,-0.08289154,-0.30438292,0.18866746,-0.01185566,-0.014900622,0.06585347,-0.17429912,0.23368333,0.24848504,-0.030657282,0.12810221,0.056514572,-0.08522698,0.13460174,0.22363698,-0.070808694,-0.021502221,0.16373353,-0.36110908,0.043011878,-0.0044124653,-0.1142797,-0.04235462,0.02421075,-0.21528327,0.113264665,0.031268027,0.072384514,-0.088938266,0.10597913,-0.09428816,0.08260809,0.02957239,-0.028380696,0.060774215,0.032935783,-0.092312366,0.06963589,-0.2249307,0.014715572,0.027534872,0.013636504,-0.08266453,-0.28983036,-0.016451454,0.019657204,-0.017288348,0.14476182,0.04766369,-0.12923163,-0.008515248,-0.013536414,-0.09226344,0.048560064,-0.014490131,-0.041649476,0.025658231,0.0017320894,-0.048025467,0.022102049,0.1678578,0.008045501,-0.09263316,0.012547433,0.010769587,-0.096745014,0.042751264,0.01885698,-0.06372612,-0.025978062,-0.1399941,-0.07629736,0.04554999,-0.011979755,0.105810985,0.066996515,-0.00953796,-0.0059278416,0.00048383378,0.058987234,-0.02278983,0.018135363,0.18602343,0.06767325,0.035124242,0.0897764,0.020874834,0.12155122,0.17197874,0.031348035,-0.0020449464,-0.08934133,0.048437893,-0.022447238,-0.088542745,0.016461654,0.0002679197,0.050267026,0.015957609,-0.07196985,-0.16411911,-0.022068989,-0.0050421213,0.0628638,-0.052849595,0.0938126,0.10931072,0.04020226,-0.013549851,-0.04548384,-0.026472308,-0.03408729,0.007436338,0.017959734,0.11901728,-0.021123629,0.013351451,-0.089668855,0.04544123,0.017760525,-0.06513471,
		-0.010532585,-0.024050146,0.015588491,-0.045698866,0.05570604,0.05799973,0.04773372,-0.043665193,0.031220501,-0.09376651,0.010182266,0.1930377,-0.021772051,-0.0623895,-0.052420393,-0.07028388,-0.033920024,-0.02526169,0.10164297,0.032928746,0.025250334,0.038957678,-0.10891938,-0.024804952,0.06889433,-0.030706141,0.0071016485,0.052696165,0.07126921,0.021808203,0.0068668784,-0.028339058,0.023676682,-0.030664256,0.007517965,-0.07746482,-0.09288407,-0.048737325,-0.047924835,0.20140696,-0.022018576,-0.024776189,-0.008858305,0.0042418437,0.025642019,0.018955644,-0.020885278,0.0068657286,0.0003506882,-0.06697932,-0.03144872,0.013855929,0.00032269536,0.04234781,0.06686263,0.04983055,0.040468775,-0.0033134022,0.062591106,0.020897988,-0.029929522,0.08196183,-0.044082668,0.04196822,-0.0088708345,0.04290699,-0.026323957,0.04924111,-0.026362386,0.02217256,-0.042508867,0.02047633,-0.031289537,0.062769696,0.0020397336,0.100223064,-0.040774353,0.023551408,0.111108005,0.1443562,-0.022187755,0.030533316,0.014639293,0.07943579,0.0850094,0.029234195,0.05268505,0.15985654,-0.051856976,-0.0682248,0.051695645,0.007448115,-0.032439988,0.12704542,0.049655993,0.04735194,0.05711983,0.038160317,0.052631743,-0.01262123,-0.0024800042,-0.117622234,-0.04306423,-0.0010000869,-0.009956084,0.021236574,0.056758113,0.01875239,0.015168857,-0.004502307,0.03757904,0.005245695,0.07220965,-0.032523565,-0.035537664,-0.004484849,-0.01508665,0.0016009628,-0.0014452769,-0.08272132,0.04331266,0.043644864,-0.052657433,-0.0632971,-0.02184275,-0.09899501,0.007666023,-0.022940997,-0.12241141,0.04047675,-0.031299833,0.039781585,0.0033997346,0.0048191748,0.033653505,-0.06826033,0.04191882,-0.054330498,0.063485384,0.2577179,-0.025776299,-0.028531805,0.0036530606,0.122478254,-0.082906514,0.056024272,-0.025772735,-0.0111136865,-0.038079847,0.027187163,-0.066814244,0.057124868,0.047424708,-0.09540397,-0.088189684,0.10828368,-0.017102452,-0.04292089,-0.015534846,-0.035478137,0.012020135,0.06669716,-0.0565666,-0.10868897,0.037975475,-0.07206864,-0.031154446,-0.011340095,0.019281654,-0.009905671,0.015425317,0.03844663,-0.053894006,-0.017254444,0.0585685,0.08557263,-0.019493802,0.011073779,0.03126222,-0.04355378,-0.0076907855,-0.017176585,-0.018020032,0.059224315,0.069146365,-0.06423208,0.035129227,0.12248456,0.022001194,-0.021169877,0.022320991,0.056397077,-0.022903116,-0.0027292713,-0.029144676,-0.093416534,0.01859071,-0.069152564,-0.014260718,0.059295617,0.004828474,0.043511707,0.11946252,0.086120725,0.06470314,-0.0058450014,0.04016417,0.3385732,0.06143562,-0.20137513,-0.68161064,-0.038716998,0.049370863,0.10607076,-0.18466997,0.20027207,-0.1040879,-0.023827579,0.14543954,-0.021027174,-0.106096566,0.08987811,-0.033464696,-0.16764206,-0.0097908825,-0.026532533,0.022655461,-0.2470401,-0.11365307,0.069569394,-0.026536113,-0.0041531282,-0.2015262,-0.04082669,0.2927228,-0.034891974,0.13843794,-0.35084155,-0.019208334,0.011550545,0.022947105,0.156593,0.04381543,0.14038272,-0.10297887,0.05992638,0.18215807,-0.04439158,-0.049474288,0.22827014,0.28494146,-0.11742442,-0.09892347,-0.25785753,0.2400269,0.48586613,0.25934196,-0.18308839,0.065644704,0.10571653,-0.1522719,0.16307345,0.072962075,-0.016697885,0.0011933547,0.1695008,-0.012524413,-0.11156234,-0.028985806,-0.04669817,0.11905291,0.19723268,0.052178018,0.22936083,-0.07344041,0.042770606,0.1533072,-0.08598439,-0.38489956,0.017164232,-0.329822,0.13916942,0.08716885,-0.070268825,0.089588046,0.028839711,0.52567095,0.013629599,-0.08863576,-0.06554006,-0.22014207,-0.0045690374,0.09863146,0.091563985,0.10738148,-0.026141062,0.292252,-0.2916707,-0.07398013,-0.15861431,0.08400989,0.07349645,-0.16424596,-0.05365545,-0.002418893,-0.008260252,0.07868872,0.011550862,0.012263819,0.0013226871,-0.005821973,0.057700656,0.0394727,-0.031946804,0.01826387,-0.09678185,0.09712857,-0.047106892,-0.021615475,0.096373305,0.0078075333,-0.014535109,-0.03123403,-0.090778366,-0.07602832,0.063969925,0.0734814,-0.14285034,-0.01914963,-0.024441898,0.021764163,-0.14420134,-0.01625345,-0.012388966,-0.06589405,-0.0785492,-0.15889928,-0.053701594,0.02689084,0.18224014,0.0005593979,0.008036301,-0.07794893,0.05352516,-0.07069112,-0.018878777,-0.0479373,-0.060731675,-0.06337538,-0.035640057,-0.13219047,0.006570202,0.028958721,-0.014609481,0.05698328,0.00357573,-0.028839627,0.006334959,-0.0151142385,-0.019690523,-0.051837545,0.011986984,-0.022569926,-0.0053788503,0.048341885,-0.0031555858,0.054650623,-0.0021396508,0.11267668,0.08325077,0.01755863,0.008211585,-0.07283314,-0.070230246,-0.086409904,0.10781526,0.023788948,0.026736857,-0.005538002,-0.16259089,0.046136662,-0.106351994,0.022734469,0.056943096,0.04604218,0.08056253,0.0630359,0.2824357,-0.018291619,-0.037773985,0.07060565,0.024524,-0.03741717,0.045631833,-0.09244957,0.023581615,0.036065504,-0.06378478,-0.00084990426,0.046862148,
		0.093615875,-0.07418266,0.0036216306,0.10359509,-0.8778791,-0.16653901,0.024086952,0.0784902,-0.07530208,0.043476947,0.10745359,-0.028259944,0.066891804,-0.08850446,-0.06847637,0.06529839,0.074526735,0.6803097,-0.065647,-0.15264004,0.009620157,-0.12686147,0.5741905,-0.032397665,0.017141536,-0.0118223345,-0.098929726,0.055134043,0.28824285,-0.050270736,0.032063887,-0.1517667,0.09595867,-0.0072116638,0.13101912,0.15994745,0.0059454194,0.048116595,0.0720082,0.1211496,-0.26566574,0.09406916,-0.033042286,0.30472037,0.02830293,-0.052010953,-0.12107968,-0.008168697,0.10762065,0.44031823,0.536634,1.2911161,0.8114049,-0.27106252,-0.087610476,0.025593903,-0.023034872,-0.3097077,-0.19480284,0.20477845,0.082953945,-0.03767533,0.04871827,-0.12506473,0.0432193,-0.08413904,0.0011531456,0.7644885,0.03176229,-0.02951521,-0.28528333,-0.07254793,0.076555036,-0.32857415,0.1195127,1.2734339,-0.05043382,-0.105897844,0.29281446,0.010827947,-0.042667583,-0.014112307,0.08849697,0.08774687,-0.110062435,-0.48113778,0.22949281,0.05133813,0.13670674,-0.050735317,-0.121910624,0.032542028,0.12298427,0.24242076,-0.21583882,-0.034366842,-0.007473607,-0.55376244,-0.029061763,-0.11073844,0.266724,0.0012650356,-0.08771416,0.43412176,-0.14801276,0.24482313,0.034726694,-0.018943151,-0.0009396284,0.01418794,0.043445725,0.1374741,-0.053754173,0.012977194,-0.0057069394,0.017432604,-0.05152609,0.44405425,0.06019559,0.09500726,-0.034400772,-0.057816442,0.0020196908,0.04164767,0.13520749,0.09249815,-0.017009908,-0.04144774,0.8177564,0.09443805,-0.08305634,0.08795332,0.042913593,-0.011971247,0.034719918,0.64737177,-0.42025006,-0.009494159,-0.066442385,-0.097862415,0.14279169,-0.032068156,-0.03719686,0.15176824,0.0348435,-0.062907144,-0.004634277,0.071977854,-0.029634746,-0.10006475,0.42897832,-0.42939475,-0.20830421,0.08260314,0.112395756,-0.05672585,0.1909058,0.0718762,0.19650193,-0.10181367,0.20834748,0.04716988,0.007625461,-0.0026017,0.00924479,0.03951829,0.0024233763,0.10999451,-0.10181846,0.0029414198,0.22790962,0.021112824,-0.017318334,-0.025107296,-0.10634213,0.20955113,-0.050806265,-0.059939165,-0.13645758,0.6270361,0.017710235,-0.027839847,0.015282517,-0.014891008,0.048669588,0.0799059,0.020798838,0.47908455,-0.051263522,0.014105097,0.09586433,-0.023117563,0.056648247,0.5236918,0.029421858,0.010071003,-0.012167821,0.48513046,-0.03868812,-0.021367827,-0.2119982,-0.1586395,-0.35334647,-0.14625329,0.14167088,-0.2581668,0.5988679,0.2819365,-0.32231656,-0.162761,-0.13581434,-0.346468,0.16511801,0.09229409,-0.36591622,0.036781926,0.025225054,0.28742337,0.118063584,0.31482518,0.027083347,0.071854554,0.34892243,-0.17930973,-0.004217518,0.10341075,0.33807722,0.14782907,0.14404844,0.042625226,0.20123583,-0.10567155,-0.14210652,-0.005080016,-0.028064352,0.28432652,0.26363382,0.10628484,0.44646364,0.3687535,-0.023405025,0.13774133,0.16844426,0.09971097,-0.092786975,-0.40847918,0.039820965,0.12734333,0.33611715,-0.04557378,-0.055264045,-0.29652128,-0.2750429,-0.28813475,-0.11934529,0.025230858,-0.13486806,-0.28672472,-0.18337198,0.07724568,0.07000312,-0.2365331,-0.2508782,0.2123062,0.38123325,0.11754714,-0.1256075,-0.025273018,0.46680608,-0.063272096,-0.34601858,-0.027582906,-0.2423131,0.16977167,0.08923614,-0.06293226,-0.2146166,-0.4992041,0.04898058,0.18497099,0.033792164,0.11951714,0.10036058,0.018882804,0.17159443,-0.02729488,0.012334789,-0.101187386,0.28739396,-0.010243605,-0.14048548,0.06571163,-0.12184239,0.009812502,0.32466695,-0.030257909,-0.34989518,0.007880572,-0.056160986,-0.017478064,0.18544878,-0.010032442,-0.048218712,0.24267335,-0.4510001,-0.12660095,0.034422476,0.15403666,0.057850234,0.08574423,0.0841533,-0.077096805,0.007589549,0.06010592,-0.11161039,-0.00959659,0.022653429,0.37571666,0.006876214,-0.12866212,-0.028723868,-0.07408649,0.51536804,-0.061273493,-0.015182807,-0.15179212,0.042829495,0.0066276826,-0.36197218,-0.06417931,0.07278604,-0.054300983,0.08510252,0.006405833,0.12529448,0.21900807,-0.1318088,0.085380256,0.0007616034,-0.021250075,-0.24823222,-0.011012521,-0.063998334,0.53483677,0.0808853,-0.11991158,0.018649938,0.03232355,0.041660354,0.3705828,0.6159583,0.5839591,0.82894164,-0.2897479,-0.22903681,0.044033293,-0.000051412946,-0.2122026,-0.23457548,0.22713448,0.05589118,-0.20392868,-0.008024102,0.04456175,0.052680388,-0.053603213,-0.03979102,0.5438877,0.08685677,-0.048660807,-0.27212685,-0.0036208716,-0.04786827,-0.5383284,0.26148415,1.0099989,-0.03137984,-0.0547249,0.1714275,0.055082016,0.05947142,-0.090415806,-0.09045195,0.059310284,0.014714456,-0.2615329,0.144851,0.6879157,0.051900335,0.061665174,-0.14901422,0.024335818,0.04475072,0.2013435,-0.07950783,0.07084101,0.00048210903,-0.53686804,-0.0067464327,-0.09766355,
		0.026498197,-0.07355722,-0.059603713,-0.027296267,-0.04154692,-0.1638232,-0.02365184,0.0016319209,0.037652116,-0.064665034,-0.0063006287,-0.25526342,0.108477324,0.0458881,0.050489556,0.05027777,-0.08994819,-0.19401225,0.011767076,-0.03635433,-0.034421142,-0.09576886,-0.025259854,-0.051928855,0.033308532,-0.081751995,0.07970007,0.04343122,0.047005896,-0.02264079,-0.045801245,0.039171126,0.010954812,0.121692985,-0.108275294,-0.117556475,-0.07309945,0.13764007,-0.063154735,-0.14170523,0.012404351,0.117868036,-0.0013959031,-0.0050409785,0.089365244,0.0013162236,-0.05944381,0.04639617,-0.11197917,0.09652948,0.0052078282,-0.059718344,0.052999724,-0.035033103,0.056171972,0.007189429,-0.05776743,-0.011432113,0.08598686,-0.0296702,-0.026801422,0.05646923,-0.02623764,0.031739715,0.058095805,-0.0128356125,0.081881925,-0.107034,-0.0024465432,-0.0016885942,0.054532442,0.005501522,-0.043360278,0.01954415,0.03977753,-0.1502382,0.0103659965,0.05587412,-0.04948565,-0.14876047,-0.09616534,-0.0046097827,-0.0627864,0.10515797,-0.016374871,0.05004023,-0.12768894,-0.18810582,0.06280686,0.02534636,0.0034164926,0.020753806,0.07534911,-0.117995724,0.019298993,0.026786292,-0.12890032,0.08420449,-0.014770192,0.0055650794,0.005303225,0.013311586,0.0044093584,-0.07823756,0.053101435,-0.051775217,-0.0029131286,0.12916501,-0.03466457,-0.024949731,0.09794461,0.06218625,0.054911602,0.05988936,-0.11691688,0.037779264,-0.029593265,-0.06373559,0.073876925,0.07946474,-0.044687517,0.037240975,0.006763483,0.028571662,-0.02665235,0.049417768,0.0479787,0.024873422,-0.017203983,0.04043604,0.005345603,-0.06396232,0.010436362,0.032255802,-0.0088641755,0.06728766,0.020622386,0.023115482,-0.10606095,0.08335735,-0.04828069,0.095867634,-0.040538765,0.018819975,-0.030934975,0.07531802,0.049499817,0.0013130187,0.06834409,0.07259376,-0.015676646,0.00029196727,0.22021726,0.041349735,0.041848604,-0.03812372,-0.07392052,0.011505505,0.039404042,0.017884232,-0.007527651,-0.17631768,0.014001315,0.015206085,-0.034656666,0.09602578,0.04330509,0.192556,0.017271006,0.0678201,-0.01561379,0.055206552,-0.06135116,0.05138288,-0.034113854,-0.13416778,-0.014649073,-0.04753484,0.054374747,0.19409443,0.09226903,0.024408503,-0.007209228,0.03545979,0.05502143,0.007933636,0.15077497,-0.107013166,0.1191478,-0.039250385,0.03671944,-0.011564103,-0.06450747,0.24660954,0.05555563,0.014443002,-0.09883297,-0.0072941966,-0.026962394,-0.018412633,-0.027828706,-0.05852673,-0.124425694,-0.04180273,-0.11070436,-0.07144446,-0.022512056,-0.22850801,-0.09758911,0.02112442,0.18098506,0.01209245,-0.56512564,-0.15942584,-0.17976622,-0.1701145,-0.02460167,-0.029774666,0.033812515,-0.021919264,0.054271866,-0.04386199,-0.098947525,0.16361706,-0.18272479,0.04382052,0.11605292,0.093980126,0.1194151,0.14628556,0.071708545,-0.021252919,0.21894784,0.15324908,0.05404746,0.2776668,0.59390616,0.030299734,0.30571607,0.0001019668,-0.16140828,-0.07650707,0.07348289,-0.000368493,-0.10085419,0.056659255,0.035263415,-0.17870899,0.21055974,-0.46757418,-0.14910649,-0.02456357,0.28017616,0.02460121,0.07152678,0.013382869,-0.39095408,-0.06741978,0.1963315,-0.026021147,-0.2787892,-0.16772997,0.09035241,0.06704909,0.18933204,-0.052860554,0.13102897,0.3738404,0.1778621,0.11856056,-0.110135175,-0.18347824,0.020736096,0.12641676,0.0276752,0.33914056,0.06601504,-0.17655917,0.5177421,0.19075084,0.07049301,0.15588021,-0.08826255,0.0068465765,-0.12674385,0.0948194,-0.6128108,0.17357108,0.0007114837,0.012540674,0.0015749482,0.039312296,0.09237603,0.013192457,0.10357169,-0.013506519,-0.5936531,-0.23280872,0.14976557,-0.014599213,-0.023795817,-0.03337913,0.005059389,0.062888116,-0.10612094,-0.26285806,-0.043355204,-0.007600141,-0.043660805,0.03503634,-0.047019523,0.13090697,0.0841288,-0.0078718485,-0.005229943,0.03841822,-0.009751737,-0.13123262,0.12519872,-0.0074618445,0.0015159913,-0.042726755,0.08195225,0.046646647,-0.034371216,-0.008333657,0.09296772,-0.019581249,-0.09824911,0.00045829755,0.010352274,0.3354784,-0.020515407,0.01107527,0.010303134,0.012775463,0.024755849,-0.032741092,-0.0760487,-0.22324483,0.05028291,0.066815875,0.030908838,0.054872416,0.09501865,0.033556465,0.05675833,0.0016769632,0.049169537,0.096483536,0.0061127804,0.1961064,0.023854094,0.011283096,-0.010836543,-0.055442143,-0.11374084,-0.00021444281,-0.0035503001,0.034537055,-0.018135635,-0.054087956,0.03831715,0.045188524,-0.09058475,-0.058236603,0.03263284,0.06289797,-0.04848235,-0.04117027,0.09532505,0.033562146,-0.00288687,0.113081306,0.010246594,-0.22762556,-0.03556321,-0.0062455186,-0.06411071,0.31505835,-0.00061224465,-0.00011570521,0.009977727,-0.015363068,-0.044920884,0.076008394,-0.15288173,-0.17453156,0.04432924,0.12616304,-0.0570911,-0.036450107,-0.021186287,0.0029644899,0.07674811,0.07829716,-0.11030332,0.053050082,0.09553533,0.006510669,
		-0.023889098,0.010016174,0.0019437968,0.12041547,-0.045289744,-0.21390235,0.029750949,0.004811765,-0.016535217,0.03998821,-0.03682417,-0.21389464,-0.06528137,-0.0053151716,-0.041961115,-0.01577382,0.048643075,-0.13434501,0.033252537,0.054371234,0.07478059,0.0808786,0.014916071,-0.05104036,0.1099465,-0.006869776,-0.00048001966,-0.12528993,0.07177561,0.0036494276,0.03488583,0.039272416,-0.08939323,0.062209494,0.011564442,0.06620276,-0.004018491,-0.008476928,-0.01310551,0.07415647,0.07787884,0.03037597,-0.05515935,0.028990224,0.007052138,0.01036812,-0.028664686,0.028482214,0.049931277,-0.06395355,0.01796394,0.10166718,0.0100230025,0.017663881,-0.022669774,0.06480114,0.09237705,0.059612125,0.0016937305,-0.022849813,0.11773745,0.0023848435,-0.10728258,0.014756722,-0.009624098,-0.0691277,0.04169553,0.039682224,0.031561427,-0.0073111844,0.031936068,-0.008860858,-0.031120019,-0.04179265,0.024368351,-0.18491323,-0.054051843,0.010328669,-0.0016341935,-0.06308973,-0.081551336,-0.031757727,0.096104674,0.04961591,0.045261506,-0.008438837,-0.107687116,-0.044347182,0.036543448,0.06388407,0.07421863,-0.020580813,0.038044266,-0.054403584,0.017008267,-0.020282809,-0.11100104,0.07474179,0.09817799,0.07906563,-0.029303912,0.01840048,-0.0062279357,0.026846739,0.074621715,0.057707127,0.035897113,0.06741235,0.023041675,-0.020577999,0.076420136,-0.047589075,-0.004698986,0.04291301,0.096106075,-0.052666955,-0.0436104,-0.25346595,-0.014487103,-0.09746394,0.018565618,-0.013875017,0.08879394,-0.008881095,0.025641166,0.056703195,-0.019772574,0.0202889,-0.023661884,0.07766203,0.09410663,-0.083680436,-0.009306811,0.016592806,0.045670763,0.0060596783,0.10604188,-0.022087125,-0.005382884,-0.02832438,0.037042927,0.042397436,0.01648848,0.08135331,-0.0583452,0.08479178,-0.09546011,-0.013703458,0.059627738,0.07760081,-0.059915774,0.07005942,0.08817047,-0.010203999,0.03189141,0.05368787,0.0011687513,0.014812063,0.032683708,0.025062375,0.0067148907,-0.19334501,-0.00034010623,0.052148297,0.025286019,0.041128494,-0.030935146,0.05889781,-0.0005603219,-0.03288686,0.03723908,0.049584977,0.031785104,0.000095269235,-0.08905042,-0.030150974,-0.0352857,0.029438859,0.0012274013,0.17866749,-0.0063898303,-0.087189384,-0.0067584775,-0.004708206,-0.015403366,-0.02148918,0.12582888,-0.1847738,0.06356563,-0.0466943,-0.07637319,0.04835662,0.054943737,0.016599968,0.10525459,0.0893687,-0.11760993,0.11599058,0.033978835,0.10476256,-0.0912572,0.015119101,-0.06894145,-0.035811838,-0.19758646,0.053470943,0.006630521,-0.08371301,-0.112927705,0.065955065,0.2644415,-0.13318658,-0.25627154,-0.91236687,-0.13794844,-0.01925467,-0.019738223,0.18455036,0.030788211,0.038613655,0.046607226,-0.028608488,0.16212034,0.108593345,-0.15941834,0.07695338,0.027002666,0.2596656,-0.16412565,0.12191896,0.13532922,-0.043493375,0.2809755,0.07494429,0.019848106,0.121947445,0.17320365,-0.023481622,0.25081336,-0.023206225,-0.030505046,-0.026855296,0.054242607,-0.5059739,-0.1569601,-0.029839886,0.04294058,-0.020710627,0.0763048,-0.4945294,-0.29035226,0.022266157,0.1672395,-0.1799332,0.088321015,-0.06216823,-0.51141125,0.050843246,0.084587194,-0.03443539,0.046708737,-0.22565307,0.059305977,-0.022171535,0.016378907,-0.5602604,0.02390841,0.16438064,0.15612395,0.032143194,-0.14658865,-0.01386915,0.08536951,-0.1113666,-0.028350025,0.21719758,-0.1681396,0.077831365,0.41583782,-0.037244644,0.044844147,0.01599403,-0.038358968,-0.11429928,0.37971282,0.041770533,-0.5088237,0.07876848,0.020490887,-0.020018741,0.3028672,0.03280147,0.06242537,-0.034489408,0.123511754,0.2664562,-0.31668463,-0.14355654,0.09703867,0.066361606,-0.018958887,0.06615138,0.06389371,0.025757767,0.1270244,-0.11493441,0.0062681558,-0.020339685,-0.024273556,-0.013719377,0.003747037,0.16424917,0.14701025,0.047953904,-0.02681997,0.080032915,0.0054719374,-0.191085,0.06836602,-0.020024247,0.03701463,-0.012051437,0.19256367,0.04779025,-0.008803344,-0.0051126354,0.012754056,0.050909936,-0.19433981,0.06577026,0.032044422,0.13508616,0.013402525,0.0030585865,-0.030477135,0.04026509,0.021202628,0.02993747,0.036452595,-0.22315243,-0.04972612,0.076011084,-0.03168588,-0.07224738,-0.019241422,0.076240785,0.0014685882,0.1251156,-0.021984626,-0.0172217,0.01843837,0.4121284,0.019770365,0.10305966,0.09310536,0.006704474,0.008893526,0.07158356,-0.033197165,0.008975712,-0.0759468,-0.1146924,0.09653153,0.10907621,-0.08030503,0.040813558,0.05120927,0.22336903,0.043923758,-0.015383256,0.1100187,0.051961508,0.074311756,0.051887583,-0.047619324,-0.037271813,-0.06384254,-0.052124016,-0.14013429,0.34597638,0.04332727,0.03716721,0.00017321459,-0.029966502,-0.06170027,-0.0084510865,-0.05882744,-0.14488538,0.004970575,0.101419196,0.04076203,-0.09754622,-0.058840472,-0.04395073,0.025296146,0.08451868,-0.08206839,0.1276446,0.0036792138,-0.016208291,
		0.078773014,0.049041826,-0.071047865,0.07785032,0.13702163,0.06385274,0.07010791,-0.02804788,0.015142407,-0.020508176,0.014754771,-0.04788085,-0.031243976,0.022629373,0.03792579,-0.10276952,-0.0073264334,-0.2925068,-0.004348042,-0.042153448,-0.03138913,-0.028188346,-0.15612724,-0.01956896,0.029923482,0.073691584,0.070751265,0.030376308,-0.24106863,-0.06469838,-0.062380258,-0.11339498,0.017426256,-0.022419024,0.03351826,-0.06743252,-0.0140260635,-0.07637995,0.08107094,0.2963077,-0.0044226674,0.02221193,-0.089452565,-0.07764001,-0.023929147,-0.084461994,-0.064752884,-0.031714704,-0.10535184,-0.18648745,-0.031134382,0.113392204,-0.10878796,0.029683987,-0.008416795,0.10517193,0.08591804,-0.090389505,-0.11330916,-0.07738375,0.087040335,0.20951721,-0.0819191,-0.0073388857,-0.11007032,-0.028389629,-0.0058179116,0.20199627,0.0699107,0.010836341,-0.09123811,0.04084302,0.08384862,-0.124204956,-0.033164497,0.16143118,0.0342677,0.03526171,0.10733941,-0.047604386,-0.11218098,0.054503266,-0.005443057,-0.04758476,0.032424696,0.04927081,-0.18520463,0.10309493,-0.07457321,0.021675142,-0.09960175,0.017144086,0.06569501,0.116085336,0.010922941,-0.030793654,0.021260276,0.088469826,-0.0628549,-0.08959068,-0.0453597,-0.012639528,0.03524969,-0.1445395,0.0679715,0.1208194,-0.11819858,-0.08952096,-0.0019725412,-0.010366668,-0.06726569,-0.016477682,0.010035103,0.024723692,-0.0010315487,-0.057997018,0.053592194,0.016435832,0.04888558,-0.054227784,-0.018142639,-0.06348208,-0.13454448,0.025619078,-0.098998204,0.022021225,0.100059405,0.04194445,-0.14869079,0.0063761487,-0.021380087,-0.120675616,-0.028010605,0.00097362336,-0.0009428808,-0.009770202,-0.13891566,-0.026694762,0.06466209,-0.2989126,-0.0075708115,0.004000064,-0.053718954,-0.07636734,0.031525612,0.004299635,-0.013215844,-0.08583261,-0.057174113,-0.00981161,-0.06391428,-0.028086435,-0.04475213,-0.059724424,0.057567414,-0.10551735,0.09816269,0.04113352,0.034912918,-0.051635332,-0.07996673,0.26607263,0.00711251,0.0081038745,-0.03601085,0.023569074,-0.04677888,0.055916484,0.054538514,-0.023214968,-0.027693512,-0.010659746,-0.023778936,-0.048682477,0.011635983,0.052696344,0.06106982,0.010300681,-0.0041935854,-0.2108568,-0.010448664,-0.011228608,0.05988286,0.0044903494,0.03888652,0.08598873,-0.03622276,0.14798544,-0.014702379,-0.018826008,0.0794359,-0.0583687,0.024936987,0.3588654,0.060097106,-0.03752023,-0.019600257,-0.046409573,-0.022455208,0.02471137,-0.21344768,0.116730586,0.010797806,0.11705328,-0.15978898,-0.06963474,0.08896547,0.054396506,-0.0010144167,-0.19246353,-0.039323106,-0.10297598,-0.06992585,-0.13621578,-0.6171902,0.06409235,-0.29282612,0.22893102,0.3041173,0.08138963,-0.051429313,0.1594029,0.05343533,-0.013136266,-0.091530584,-0.027800184,0.10870015,0.16815057,0.12396968,0.076770276,0.0925418,-0.045541614,0.046389665,-0.009077458,0.061310004,0.59924096,-0.050248384,0.024992023,-0.01458469,0.054801498,0.000671452,0.08837296,0.10606592,-0.18188503,-0.06944281,0.03287038,0.04415423,0.1477959,0.14061862,-0.12840234,0.27219406,0.17702916,0.21062425,-0.21981527,0.27422228,0.2250745,-0.104287565,-0.07508156,0.29789206,0.22599605,0.0245284,-0.29444304,-0.10800981,-0.00019824966,0.048103906,-0.2602077,-0.07949561,0.41422403,0.021735385,0.115891464,0.19406606,0.24845506,-0.053050097,0.10179336,0.048428826,0.1411035,0.19242547,0.010320452,-0.019477671,0.054250922,-0.2559516,0.14722043,-0.18496485,-0.12513845,0.16458213,-0.18653406,0.21836445,0.32180247,0.10498178,0.08536534,-0.23468903,-0.13333145,-0.0836545,0.14114012,0.005813551,0.15674037,0.1851711,-0.6963947,0.030265693,0.18204702,0.09579338,0.0242345,-0.019812327,-0.06551229,0.30454174,0.17871578,-0.039711855,0.0051491368,-0.022745349,-0.091690354,0.056167997,-0.17381653,0.044027995,0.119639166,0.008968763,-0.00805465,0.047471803,-0.16942804,-0.028293876,-0.012256461,0.09737677,-0.007189616,-0.247603,-0.039369,0.06468506,0.09687302,0.0037220172,-0.01065693,-0.2069215,0.012763117,-0.00097431825,-0.17673317,-0.013118878,0.012371663,-0.0023748134,0.070021376,-0.1492596,-0.04288251,-0.07479556,-0.32745388,-0.114186674,0.024042686,-0.08820461,0.1371306,-0.029442923,-0.046974488,0.015891716,-0.07256466,0.004152696,-0.11400179,-0.029994747,0.2583582,-0.14449516,0.042655647,-0.021656664,-0.028326098,-0.02514106,-0.094432,-0.043632504,-0.06421583,0.032764927,0.24237067,-0.03779883,0.015899884,-0.063988276,-0.034749616,0.0053887367,0.21612787,0.01629609,-0.053416897,-0.10152447,-0.043584492,0.07914611,-0.1313787,-0.055781133,0.25739938,0.06016599,0.055017408,-0.058039196,-0.006859298,-0.000767788,-0.06306549,-0.015949775,-0.052525874,0.013715084,-0.019820986,-0.082429275,0.00054757704,0.0030671037,-0.05304869,-0.006190888,0.010845982,-0.075971305,0.082506604,0.023067776,0.0001225361,-0.044635452,0.029389936,0.012069142,-0.12255587,
		-0.11584535,0.009281508,0.020263188,-0.028641868,-0.057972286,-0.08360788,-0.008613296,0.09194277,0.018836137,0.004986543,0.008433602,0.017480237,-0.105967805,0.05572216,-0.06601894,-0.04629175,0.0059571336,0.07885798,0.026485095,-0.072420135,0.08227561,0.037121788,-0.011941828,-0.06272264,0.0046531614,-0.08049762,-0.028448677,0.01421919,-0.088826835,-0.009451196,0.035193946,0.012133582,-0.02793776,0.03191039,0.009077112,0.014191942,-0.019643,0.03215422,0.10393436,-0.22424775,0.018364877,0.050103538,-0.041041486,0.028036043,-0.076383725,0.06218952,0.05397535,0.04590357,-0.014622879,-0.02063941,-0.05303367,-0.015387378,-0.095882975,-0.07669482,0.06154694,0.04752096,0.0045482204,0.11129833,-0.018346282,0.0001435164,0.037361942,-0.043336105,0.009712324,0.043239634,0.020123046,-0.0009540961,0.09945687,0.072218485,0.056184202,0.0154087525,0.017200401,-0.0012238014,-0.022951195,-0.039426725,-0.028652558,0.14464962,0.049911123,-0.056224015,0.008305665,-0.11230564,0.05089221,0.021502636,-0.07953409,0.040765245,0.041262135,-0.028881583,0.053560596,-0.13462754,0.11393842,-0.029725343,0.012420569,0.0077761235,-0.046006426,0.004150698,0.009894908,0.0091794105,0.1355612,-0.04705803,0.17461802,-0.02264831,0.0054968307,-0.009961915,-0.006566851,-0.0015488196,0.048381805,0.015314945,0.078820944,-0.020657063,0.053579055,0.07659133,-0.030110603,-0.0041596624,0.028442549,-0.03466871,0.05442113,-0.05182019,-0.1244075,0.01222626,-0.039378963,-0.009239127,0.0711896,0.05390202,0.035088606,0.038423635,0.05175684,-0.023924854,0.021728234,-0.060810328,0.07000387,0.011329277,0.09144409,-0.020763297,0.099899665,0.026349267,0.015672509,0.018467208,-0.034148224,-0.023571292,0.054408517,-0.063236065,0.054798592,0.07127468,0.081003286,-0.021451171,0.03515316,0.02538201,0.020890009,-0.04041806,0.05362483,0.04702769,-0.025301354,-0.001362975,-0.07826376,0.058542997,-0.037249736,-0.041576266,0.046867188,0.014306386,-0.048101895,0.047603287,-0.0092491405,-0.09986097,0.020752853,0.103294306,0.029085677,-0.010722456,0.039321106,-0.0073315436,-0.024006972,-0.028606629,-0.021031892,0.013822129,0.06493698,0.043409508,0.035792816,-0.052660193,0.038083714,0.015485265,0.023459261,0.027034964,0.010246021,0.042147018,0.037458725,0.08110955,-0.015808688,-0.036094103,0.008268381,-0.020237744,-0.012346229,0.028954014,0.025090344,0.06793381,0.026489483,0.15042779,0.139335,-0.0016018506,-0.002226514,-0.008048487,0.07395375,-0.0024179842,0.051176988,0.0019563132,0.06799812,0.084407024,-0.04022097,0.11957171,-0.01919623,-0.16075483,0.15526037,0.12509401,0.034175236,0.172743,-0.022172112,0.07256056,0.1813244,-0.59614944,0.09619186,-0.09046366,-0.019475818,-0.05290884,-0.16284828,-0.046689343,-0.118844725,-0.06590783,-0.045338795,-0.035033215,-0.07935285,0.006229971,0.117624566,-0.05166529,-0.0057800435,-0.014254113,0.0370765,0.104459405,-0.011857729,-0.29248467,-0.3542633,0.041930426,-0.13680692,-0.012978801,-0.05307446,-0.08109734,0.048061937,0.0435186,0.019694094,0.073944494,0.011600361,0.040485773,-0.0060384697,-0.10928585,0.07752199,0.02002161,-0.10269132,-0.10577938,-0.006865482,-0.0752809,-0.04498197,-0.06946967,-0.13614641,-0.07575567,-0.08558448,-0.04785838,0.06533174,-0.062329907,0.059702415,-0.023968166,-0.05452451,-0.027409669,-0.011547614,0.082507975,0.004332115,-0.09064783,0.023172509,-0.113326795,-0.0364088,0.070675746,0.06388305,-0.09490118,0.2631221,0.015098593,0.14025371,-0.09307307,-0.017682081,0.10495996,-0.27462572,-0.03550878,-0.38563582,-0.091881685,-0.08605921,0.052635726,-0.10008473,0.014160061,0.016895786,-0.00028143317,0.039030194,-0.084534004,-0.22380275,0.1329858,0.1921701,-0.049708687,-0.025551308,0.020415943,-0.11819166,0.08231385,0.000025787569,0.02520663,0.008540948,0.050048556,-0.018894661,-0.0074929306,-0.03114646,0.3314276,0.008519258,-0.00078326254,0.069866806,-0.018570263,0.017380934,0.07291744,-0.000031887197,0.0044300514,0.07579856,-0.045929298,0.10262481,0.06274618,-0.011186919,-0.055677526,-0.029972477,0.04985493,0.04207952,0.03008001,-0.0052013616,0.13082664,0.008423903,0.084746055,-0.018277757,0.005027649,-0.015770268,-0.04203601,0.06708373,-0.038682994,0.038185935,0.038383797,0.0807856,0.029162709,-0.014138454,-0.118584715,0.09072083,-0.036444075,0.033874366,-0.00009254514,0.008709867,0.2088341,0.005055966,-0.05561745,0.012815058,0.045515414,0.083895594,-0.041091908,0.06514731,-0.02002911,0.017155051,0.07117221,0.058489043,0.063799344,-0.0142883565,-0.018931704,0.0035087108,-0.025716782,0.017239194,-0.13615517,0.099053696,0.039730757,-0.024761423,0.19298369,0.060503338,-0.16767411,0.053121235,-0.03947537,0.12294121,0.17442739,0.14799291,-0.029314868,0.022607263,0.010592132,-0.06800604,-0.019001713,-0.013766153,-0.0047496553,0.0559917,0.0226263,-0.02302093,0.0830422,0.006182922,0.12134456,-0.028877037,0.014767543,0.049864754,0.02471178,-0.04817999,0.037861075,
		0.049660984,0.004287633,0.019373726,0.016568396,0.026598059,0.07220831,-0.0658662,-0.024718879,-0.030733656,-0.031038314,0.030892493,0.015480948,-0.018651584,0.000057067595,-0.062443893,-0.037954852,-0.02633971,-0.11417696,0.05417484,0.031033896,-0.0013032014,-0.07981288,-0.070888005,-0.02850916,0.049530026,0.002521872,0.05489561,-0.009203225,-0.10992146,-0.038472142,0.014919776,-0.00660111,-0.09545029,0.027031673,-0.07166545,0.017154176,-0.016330533,-0.009862699,0.052628655,0.33783615,0.00030397088,0.058173772,-0.009709922,-0.0025653376,0.032074515,0.026059503,-0.041557487,0.05176112,0.037898157,-0.1367632,0.15675978,0.13199645,-0.15719873,0.043562584,-0.008001289,-0.04780342,-0.09047418,0.020910513,-0.07723054,-0.018962178,0.056981977,0.13958837,0.064731576,-0.010551121,-0.060551126,-0.10242844,0.049111925,0.10641831,0.012869607,-0.021092076,0.03416254,0.004195312,0.03478088,-0.069952495,-0.013278275,0.10529233,0.0064661847,0.048794128,-0.20117116,0.065585785,-0.13055626,0.026269238,-0.05110889,0.01707084,0.06535097,-0.03633725,-0.13449661,0.05538735,-0.008408015,0.10041721,0.005246172,-0.005020892,-0.06554513,0.014636498,0.0029060647,0.07067967,-0.016658887,-0.02073498,-0.089564204,0.1399844,-0.104280725,0.021340191,0.12674278,-0.08955802,-0.019655798,0.07333841,-0.030426674,-0.034551974,0.0133315865,0.029777355,0.09129059,-0.017060002,-0.0014225147,0.0076754964,0.057668038,-0.04065112,0.055418804,-0.03663182,-0.029777473,0.02505796,-0.007951875,-0.094354816,-0.07594228,0.043934416,-0.0068388223,0.040196083,-0.030901186,0.00694233,0.024214482,-0.05038907,0.047373105,-0.04457268,-0.030093532,0.077169724,-0.08737608,0.042346638,-0.03458234,0.0373566,0.043160845,-0.10640832,-0.02181012,-0.026782745,0.09308978,0.017718993,-0.0377848,-0.026094703,0.0070848432,-0.072929755,0.041044313,-0.024923125,-0.0731503,0.10476639,0.020381344,0.011134879,-0.043206513,0.058787007,0.01078791,-0.10579126,-0.05554293,0.0077498523,-0.012067357,0.05960422,0.02131148,0.033777256,0.0041537555,-0.0527961,-0.010974074,-0.0022959895,0.0022318745,-0.036486886,0.016828114,-0.056369863,0.018149655,-0.034762446,-0.016474472,-0.045167796,0.031999066,0.023634993,-0.020335978,-0.14189842,-0.092507385,-0.0108366,-0.05020166,-0.14908911,0.002332493,0.043490127,0.008393685,-0.0013079675,0.047661085,-0.038980078,0.027276766,0.02594315,0.02865966,0.22047405,-0.09850827,-0.042018134,-0.13485894,0.07132883,-0.04474332,0.016544404,-0.27764675,0.12983699,0.051229607,0.25592196,0.015958041,-0.013886683,-0.037394702,0.13659659,0.02398366,-0.08166539,-0.14015074,-0.20226277,-0.17592691,-0.20599492,-0.2917551,0.010491334,-0.7369851,0.28944722,0.16705604,-0.08584938,-0.026599599,-0.012227159,-0.024057828,0.25693482,-0.042079315,0.25072777,-0.04426203,-0.07315363,-0.071162425,0.15730292,0.025788264,-0.030429492,0.055878513,-0.026348358,-0.008103592,0.13646607,-0.24217734,-0.15664801,-0.031222343,0.0017192625,-0.28053594,0.023504695,-0.029583978,-0.08150103,-0.0577369,0.08223058,0.021989226,-0.10450209,0.01428258,-0.34313276,0.09924908,0.021888701,0.29787496,-0.13216199,0.24751262,0.4061587,-0.23711433,0.04633176,0.28882283,0.038140804,-0.19034629,-0.20138448,0.054947305,-0.21719968,-0.029960208,-0.24944264,0.04864964,0.18263967,-0.08081701,0.10461632,0.11035902,0.2469306,0.076243594,-0.0019277429,0.14013441,0.046875443,0.0795839,0.20296213,0.27184156,0.23182173,-0.42214793,-0.03448721,-0.12985036,-0.03919093,0.27379513,-0.1623184,0.15581185,0.0041996483,0.010869626,0.03610351,0.16848046,-0.1739881,0.05536353,0.11549887,-0.13442865,0.15088674,-0.068935625,-0.3848593,0.12510444,-0.01143563,0.05471231,0.0060850717,-0.010164568,-0.10166725,0.15843737,0.16337426,-0.001714485,-0.13950484,0.021846473,-0.03036542,0.0019848389,-0.07138875,0.052304134,0.07240954,-0.090860136,0.05689272,-0.05863148,-0.112726234,0.088207394,0.023783842,-0.003114682,-0.06666657,0.042872522,-0.051345456,0.11912163,0.05629094,0.0010027663,-0.031081587,0.0129184965,-0.1100492,-0.09281117,-0.07497438,-0.009833535,0.00826236,-0.06466805,0.11710638,-0.024474774,-0.08219365,0.08908588,-0.22864804,0.01919982,-0.0380243,-0.08842573,0.036980126,-0.055756208,-0.14984141,-0.06333167,0.062292263,0.01865738,-0.09354447,-0.07012768,0.20805687,-0.011073461,-0.012696827,0.040040564,-0.16649409,0.049553193,-0.11262364,-0.10168513,-0.0017336337,-0.04197043,0.28530973,-0.0369465,-0.13880548,-0.06947326,-0.15836735,-0.033908848,0.23349704,0.024494814,-0.017414995,-0.024097502,-0.058737192,-0.06855811,-0.071331516,-0.0033210933,0.23338854,0.046152364,-0.024543468,-0.2371569,-0.1263197,-0.2452553,-0.10449025,0.08448178,0.057005826,-0.03266466,0.06925567,-0.08665827,-0.17086841,-0.013952849,0.0030468574,-0.0043275626,-0.029153164,-0.11272974,-0.049068563,-0.029524598,-0.039253954,-0.22032623,0.12162998,-0.01697727,-0.0076937973,
		-0.16199264,0.056493174,0.0007246078,-0.35123184,0.24592657,0.34781095,-0.020801092,-0.0793899,-0.057552263,-0.04341126,0.03489583,0.16074353,-0.0655565,0.078644015,0.13080789,0.06653002,-0.015212177,-0.2511291,-0.02619558,-0.007373398,-0.06726188,0.08228618,-0.30932978,-0.043893237,-0.030681808,-0.032917663,0.021410186,-0.02193084,-0.21615537,0.015106743,-0.07956834,-0.21613482,-0.07788469,-0.016309433,0.084502146,-0.087229975,0.6364471,-0.0606,-0.040369127,0.9584727,-0.18265341,-0.027286237,-0.084701136,-0.25465927,-0.11039597,-0.074650295,-0.07351946,-0.15401265,-0.022719437,-0.12566124,-0.46945024,-1.0598469,-0.7031861,-0.05005204,-0.07667007,0.05150196,-0.18243614,-0.11038768,0.17146859,-0.0747452,-0.21656111,0.13634844,-0.1499225,0.005777356,0.019761642,0.024164494,-0.03972724,-0.21276501,0.0077219494,-0.039366353,-0.058660433,-0.06058019,-0.05766661,0.09293224,-0.098432355,-0.5065761,0.01907975,-0.05310226,-0.07480159,-0.1002721,-0.017307809,-0.026553065,0.0017070168,0.0016210339,0.19222133,0.0829941,0.50370955,0.5556633,-0.1728174,-0.0034362378,0.093390234,0.08791255,0.062087666,-0.3538487,0.0498899,-0.05834574,0.050824326,0.10708311,-0.08651626,-0.025165532,-0.15385993,0.05150179,0.02904468,-0.20217925,0.008123554,0.17119832,-0.017696021,-0.049433727,-0.039527535,0.050330106,-0.027360257,-0.143115,0.13196896,0.020173455,0.040325373,-0.015538241,-0.07581895,0.12991162,-0.06768537,0.085966215,-0.0066154283,0.018764509,-0.03947411,0.054739617,-0.08304909,0.05165222,0.09121319,0.051840056,-0.41989174,0.0072825844,-0.009851271,-0.045621578,-0.08700612,0.018543653,0.030925917,-0.36725354,0.4246177,0.024559436,0.18679062,0.24967556,-0.0031393922,0.029665928,0.031904258,0.004371318,0.0025754708,-0.0100075565,0.05427334,0.03183866,-0.013855261,0.046269923,-0.25946322,0.33064708,0.29078802,-0.04069574,0.0882992,0.103739604,-0.095692456,0.030227046,0.20235768,-0.05453109,-0.03366993,0.084886394,0.080928296,-0.06582776,0.010085593,0.035789713,-0.13470782,0.33731604,-0.1292306,0.011349492,-0.053457707,-0.018170098,-0.0526241,-0.09282386,0.081053115,0.046792153,0.031679794,-0.023207624,0.12006804,-0.6022085,0.02337044,0.011022913,-0.041758064,0.0068931216,-0.044809107,0.17224927,-0.035955276,0.55471355,0.03778129,0.07542622,-0.08921516,-0.035071764,-0.047482226,0.2537446,-0.041942425,-0.043314286,-0.30500513,0.023969254,0.025076916,0.025086896,-0.12865557,-0.006450944,0.07042599,0.28602764,-0.20398778,-0.1727047,0.0026043204,-0.52755105,0.21537414,0.23286897,0.21668676,-0.120730154,-0.10868411,-0.09446534,0.10518146,-0.10969289,-0.03923579,0.040766247,0.032742858,-0.17505114,0.21016087,0.07244334,-0.44714984,0.17206034,0.0011615978,0.158901,0.013098468,0.16381113,0.076598115,-0.07750447,0.0048452816,-0.17390744,0.028084824,0.06637738,-0.1664565,-0.19624254,-0.31186253,0.028505,0.13737601,-0.21267824,-0.098211706,-0.12342993,-0.0155147165,-0.17212674,-0.08364265,0.12141635,-0.033927828,-0.057575595,0.09524679,-0.18554638,0.5034591,0.11696949,0.013362721,0.3508713,-0.080238126,-0.13614017,-0.17553787,0.09744415,0.10487244,-0.03084397,-0.0024154827,0.007437068,0.0659567,0.008103463,-0.007484757,0.046757113,-0.011580715,0.3139356,-0.01796299,0.10555414,-0.1174271,-0.105702855,-0.06829458,0.14490563,0.11466635,-0.4422474,0.01749163,0.048995964,0.03947922,0.18859681,0.15551786,-0.020412013,-0.2471014,0.08474316,-0.10242337,-0.104057275,-0.44417137,-0.14714825,-0.21509086,0.18293642,-0.26560548,-0.10144213,-0.03878898,0.3076206,-0.08527942,-0.017281337,0.15466015,-0.048915423,0.017212119,-0.016878577,-0.17248954,0.13663527,0.051869076,-0.38397944,0.04235503,0.5887194,0.08707954,-0.06029767,-0.054535672,-0.017616138,-0.006623846,0.05410756,-0.10201419,-0.038215753,0.08740723,0.06012606,-0.09840156,-0.5370583,-0.08181415,0.08062335,-0.07088919,-0.007014155,-0.27451682,-0.030783575,-0.09995079,0.0010665423,-0.018599035,-0.03025327,-0.105799094,-0.042485047,-0.06261921,-0.3960397,-0.024733305,0.015274461,-0.011263955,0.10126937,0.54683095,-0.055189945,-0.051428646,-0.05346217,-0.03351417,-0.119219154,-0.028487775,-0.31357735,-0.117619954,-0.003802769,-0.13438581,-0.19777507,-0.13137253,-0.09060343,-0.44757274,-0.48133546,-0.48118365,0.0075025815,-0.09362539,0.05126962,-0.1279575,-0.118505456,0.27206653,0.061359882,-0.09213589,0.16413635,-0.12584862,-0.046090975,-0.041014884,0.15883389,-0.00022918185,0.028510971,-0.046731323,-0.14034018,0.070966385,0.036535874,-0.09670816,-0.071423054,-0.03892973,-1.0644157,-0.09518564,0.013514279,-0.21361521,-0.22337732,-0.047110073,0.03441785,0.067264386,-0.08455834,0.11346034,0.26052567,0.5166721,0.17132017,-0.038001366,0.0035762095,0.16792168,-0.047708992,-0.0853003,0.11693997,-0.016765986,-0.025016526,0.035253245,0.10933578,0.04351362,0.042125452,
		-0.040156953,-0.08546046,-0.09762111,-0.02037827,-0.060846906,-0.16937861,0.03952613,-0.028415216,-0.08032187,0.044844296,0.005901962,-0.038480673,-0.022239182,-0.056559324,0.044223227,0.0024396118,0.0042463085,-0.15933898,-0.016402101,0.022389026,-0.044343192,0.039222293,0.21151696,0.0064048013,0.036363553,-0.014773892,-0.06679165,-0.041659605,0.13055685,0.121928476,-0.013422567,0.027120275,0.014880338,-0.004518261,-0.023285557,-0.037086315,0.082859345,0.1259305,0.012529327,-0.09713825,0.019943932,-0.03767395,-0.04399639,-0.004158446,0.018667687,-0.013269898,-0.0026367125,0.03376312,-0.024062933,0.011987713,0.00458859,-0.07802741,-0.0057664705,0.047591385,0.002474424,-0.0494266,-0.09833976,0.023088288,-0.071382105,-0.11717846,0.048445217,-0.03861695,-0.025749475,-0.0044987537,-0.057530552,-0.012499309,0.043983884,-0.0052467673,-0.103114285,-0.037181433,0.12964049,-0.07965266,-0.048307918,0.033277836,-0.015051655,0.019608563,0.058180258,-0.022478659,-0.013069531,0.12707286,-0.115442954,-0.09979928,0.033783834,-0.019740088,0.04628083,-0.055958364,-0.086280964,-0.079573475,0.069935545,-0.04486108,0.08509449,0.037464958,-0.0799815,-0.112122126,-0.07665987,0.052403115,0.05627436,0.059062626,-0.056910947,-0.034270834,-0.03645802,0.04013636,0.013251614,-0.11090832,-0.0071022944,-0.0134842815,-0.009663927,-0.045246497,-0.00048215475,-0.018699886,0.11880531,-0.14706376,-0.02857422,-0.018223962,0.037670027,-0.012958868,-0.07056963,-0.14047898,-0.0135114,-0.025051266,0.004068892,-0.039150268,0.124282405,0.085349955,-0.025866982,0.038007367,-0.12228795,0.032517206,0.04203472,0.04052427,-0.016172858,-0.03951028,0.05737938,0.0047616134,0.0030185527,-0.07089664,-0.10347567,0.00037422866,-0.06950814,-0.0143862795,-0.022973252,0.034291986,-0.031327378,0.024935415,-0.05394632,0.03298029,0.07758891,0.022614228,0.052284103,0.0629328,-0.12926164,-0.007518668,-0.005400326,0.019734329,0.029681074,0.084891565,-0.009624298,-0.083155505,-0.055919025,0.02588649,0.014317003,-0.06779942,0.00291287,0.016712258,-0.0039362935,0.09264447,0.058974724,-0.04534415,0.053405,-0.108148545,-0.081071526,-0.062456474,0.06400021,-0.007070217,0.020705193,-0.10680146,0.03119906,-0.05932737,0.12347145,0.020052271,-0.09143727,-0.062493995,-0.045546565,-0.03783925,0.053742204,-0.050883535,0.009976523,-0.058704957,0.047577042,-0.025024416,0.09833632,-0.13744412,-0.0356714,-0.12971252,0.11956338,0.023904221,-0.084565125,-0.0013841381,0.0883636,-0.021986047,0.094965056,0.13449328,0.1604448,-0.0055743307,-0.04294271,0.35740286,-0.013469045,0.11196144,0.12573001,0.040682536,0.008510364,0.17710654,-0.15431243,0.08018037,-0.13957597,-0.023072852,-0.027216699,-0.071947254,-0.24011396,-0.13711539,-0.044091888,-0.09414709,0.074192815,0.020410907,-0.047523912,0.039945725,-0.052249957,-0.02815432,-0.033447407,0.0051999907,-0.14193432,0.0015944456,0.0013657566,-0.052623075,-0.07049583,-0.19781652,-0.41970187,-0.08268353,0.10934136,-0.07966008,0.07818062,-0.06560036,-0.017868007,-0.14961337,0.045574546,0.19264877,0.09824952,-0.029129757,-0.22071122,-0.17766486,-0.220581,-0.06483326,0.15855765,-0.1802761,-0.21905772,-0.01680697,-0.017822247,0.06077261,-0.06283189,-0.22141182,-0.19645207,-0.091535576,0.10315411,-0.19775844,-0.07897374,-0.024248328,-0.035419673,-0.2239584,-0.05375751,0.07513818,0.094515786,-0.20405816,0.106812246,-0.2199272,-0.2452908,-0.0026896885,-0.111296676,0.006327299,0.29809898,0.14029439,-0.06613967,-0.2728101,0.22222988,-0.0028601454,-0.09922711,0.077881224,-0.24551617,-0.22544093,-0.10396684,0.04714863,0.19259532,-0.12785576,0.105311,-0.07822627,0.023831036,-0.058484368,-0.22986776,0.3567434,0.33388466,-0.10919183,0.023711946,0.07138539,-0.054280195,0.11145919,-0.16610038,-0.20799826,-0.10215508,0.08341711,-0.044614013,-0.11093698,0.056137964,-0.13172667,-0.012346533,-0.063067116,-0.044637732,-0.018716943,0.03267759,-0.01414612,-0.005086587,0.105384536,0.019411951,0.09779641,0.06999866,-0.03397493,-0.03380123,-0.0036965115,0.063291006,0.048211012,0.09521633,0.07207717,-0.059515912,0.018323688,-0.014131635,-0.019356383,0.0075378744,-0.02655202,0.079315074,-0.07158902,-0.059234396,0.012081005,0.0017915298,-0.06333844,0.04973623,0.07381463,-0.08403245,-0.03674889,0.046285793,0.098536775,-0.010983452,0.08013615,0.09549657,-0.025523221,-0.07106921,-0.005443541,-0.015155447,-0.0152647,0.0020434856,-0.0075349333,-0.08164137,-0.003583814,0.020326106,-0.07551122,0.0040206993,-0.015380364,-0.055816703,-0.015657434,-0.028911045,0.11516052,-0.0788885,-0.11022746,0.12078026,-0.052218445,-0.005500445,0.1292036,0.11690174,-0.04943529,-0.06354094,-0.021969417,0.008778365,-0.018416679,-0.082821526,-0.030499255,-0.046147507,-0.04642693,0.020200334,0.011127948,-0.06716369,-0.13846523,-0.023191316,-0.05794055,0.01657197,-0.1094777,0.025918523,-0.18723118,-0.028673235,0.091444634,0.10089909,-0.027047575,0.025682326,-0.08508759,
		-0.12157524,-0.056634977,-0.036698677,-0.041490953,-0.06839455,-0.07918542,0.07811516,-0.16565806,0.065693215,-0.019284636,0.015978865,0.13409767,0.019362763,-0.047343995,0.0075438973,-0.060580283,-0.10149909,-0.037810188,-0.044205457,-0.040257543,0.00085053866,-0.014457102,0.0025656484,0.017208608,-0.088369735,-0.08320393,0.076313086,0.07750515,-0.19486596,-0.030902183,0.006547778,0.03181461,-0.12180038,0.06103615,-0.10139357,-0.017728522,-0.018126722,-0.16128954,0.06503903,-0.13358533,-0.07976999,0.018591903,0.06658166,-0.06283544,-0.09741013,0.014208635,-0.075131,0.0040268893,-0.057796605,0.06624222,-0.036176804,-0.08090128,0.07842796,0.07706475,0.057442352,-0.1408166,-0.020031817,-0.051270172,-0.08073154,0.09674504,0.012971194,-0.12690502,-0.027554698,-0.034386035,0.03565863,-0.048161004,0.0632275,-0.030456983,-0.011570896,0.017525217,0.058840007,-0.033072777,0.023013681,0.21180548,0.028585626,0.10858901,-0.030705566,-0.03913582,-0.03287841,-0.2634936,-0.04900577,0.041526485,-0.06522917,-0.0013300268,-0.02240878,-0.11355564,-0.17126851,-0.10686017,0.002245805,-0.05224365,0.012514711,0.03267787,-0.005211193,-0.016468395,0.033577073,-0.017392768,-0.045624338,-0.017011072,-0.033332396,0.06654893,-0.015459107,-0.025309218,-0.084670626,-0.21864268,-0.11327756,-0.027097644,-0.019106844,-0.06826693,-0.017898435,-0.0070843063,0.039230578,-0.048832156,0.02856791,-0.10136317,-0.032701965,-0.0019294929,-0.07767217,0.10484532,0.01223065,-0.03713322,-0.017558444,-0.013457694,-0.06541703,0.007724547,-0.057622258,-0.0046184594,0.056022607,-0.025320033,0.0036286714,0.037222844,-0.017181678,-0.0855103,-0.07652768,-0.084826045,-0.07731139,0.030132659,-0.042943116,0.06729315,-0.10030823,-0.23267025,-0.027096156,-0.03606581,-0.03447004,-0.019788869,-0.010710381,-0.0035504175,-0.026542863,0.02973135,0.044361863,-0.0050584082,-0.119504616,-0.13483328,-0.016265284,-0.07989041,-0.07127268,0.021309908,-0.06476043,-0.17149255,0.12804523,0.06394076,-0.058536418,-0.073627815,0.073171005,0.0072027757,-0.028324427,0.027244516,-0.079816,-0.11513217,-0.07235213,-0.025586205,-0.042491302,-0.033518508,0.0067500793,0.018736016,0.025487255,-0.06792397,0.036572833,-0.12707274,0.012624282,-0.11964102,-0.000027011229,-0.06130116,0.04742478,-0.09382466,-0.021633528,-0.003889704,-0.040737804,-0.08940405,0.019340757,-0.0518812,-0.014549848,-0.06796579,-0.0019720125,0.08016315,-0.033084016,0.01519735,-0.03211818,-0.04891502,0.016091129,-0.038621403,-0.12876482,-0.1417075,0.060295995,0.02132934,-0.19977091,0.3022059,-0.03006264,-0.25360015,0.111179404,0.15499453,0.11407817,-0.070656195,0.18913226,0.010873089,-0.062045857,-0.19983488,-0.1924214,0.018091286,-0.150043,-0.5905031,0.15447082,-0.18892142,-0.58051497,0.25506434,0.055869784,0.2802595,-0.09055785,-0.08001481,0.053964358,0.0016530087,-0.010031438,0.38730237,-0.01920775,0.122234985,0.024453668,-0.13672836,0.14254604,0.27803418,-0.33969432,-0.039470073,-0.40736416,-0.055036336,-0.1497881,0.06923365,-0.07263109,0.2887908,0.11153693,-0.13679212,0.02181148,-0.34562874,0.13816859,-0.090623215,0.075177774,0.038205832,-0.08987773,0.30556002,-0.16311926,0.21810527,0.13166568,-0.09361352,-0.14105679,0.004934254,0.10843735,-0.16980311,-0.17823003,-0.0064866925,0.18418258,-0.111833625,-0.11226387,0.24638602,0.21832438,-0.049294703,-0.02972272,-0.18570894,0.18820733,-0.07505116,-0.029120332,0.12084773,0.4974518,0.3402866,-0.03266568,-0.12908709,-0.2281254,0.03767196,-0.18359183,0.38747185,-0.2334336,-0.27263975,-0.058969025,0.036425233,-0.015537436,0.037509236,0.01600818,-0.026456788,-0.28312987,-0.1452886,-0.32475716,0.15170778,0.030757427,-0.22787634,-0.1085858,-0.012311556,0.023091393,-0.124830835,-0.14806367,-0.10055776,-0.015419495,-0.15359373,-0.051689014,-0.12579836,-0.045478143,-0.198532,-0.09797288,-0.0062758606,-0.018158948,0.038254607,-0.011437147,0.09050024,-0.00030111324,-0.008608222,-0.013202769,-0.019106863,0.08567942,-0.05054682,-0.15351486,-0.09076988,0.0013121822,0.044625185,-0.036180265,-0.01998771,-0.062346436,-0.094375364,-0.079083405,0.024018213,-0.07802333,-0.09264192,-0.03564894,-0.10709631,0.002979097,-0.25334325,-0.06750032,-0.011131368,-0.10216848,-0.07403412,-0.011651176,-0.034118336,-0.028207222,-0.056490682,0.009828776,0.0070850565,-0.11620041,0.0065481374,0.013993837,0.039938103,0.026605172,-0.055452228,-0.025890963,0.0025864793,-0.1480968,0.025518414,-0.05744928,-0.12729938,-0.10203094,0.029224232,0.13704632,-0.088879526,-0.09773909,0.116847456,-0.042722765,0.025651475,-0.09684355,-0.04284628,-0.06296818,0.12031769,-0.020390248,-0.01610964,-0.10564046,-0.088615224,-0.15073398,-0.29385698,-0.100720115,0.017331332,-0.09296583,0.025957992,-0.009345179,-0.07581196,-0.11813528,-0.4144143,-0.065451756,0.015272349,0.077243164,0.013160956,0.0053530973,-0.22415707,-0.014484043,-0.007956404,-0.1329746,-0.015603036,-0.036130376,-0.048619457,
