float kernel_h[800]={-0.1770216,0.39397523,0.4630828,-0.032714732,1.456867,0.6878693,0.009198604,-0.09768669,0.124755725,0.04800361,0.010363039,0.3377584,0.1937616,0.1905717,0.3235208,-0.04101169,0.2267875,-0.3828743,0.116294496,0.47570425,0.22737181,0.40217286,-0.6131982,0.24269648,0.5057903,0.26706997,0.20787941,-0.07310205,-0.14841202,0.38604614,0.17116164,0.48691407,0.02036933,0.104690745,-0.08276485,-0.11662364,-0.3922582,0.20369561,-0.36221325,0.08553593,0.64106816,-0.14112982,0.33474296,-0.20897876,0.04937525,0.50086975,0.3631559,0.32979983,0.06721872,-0.8757982,-0.29749432,-0.723656,-0.7035138,0.31841794,0.52472514,0.03289709,-0.08755534,0.6753438,0.3314711,-0.20760357,0.42615095,0.3014063,0.34023032,0.3506763,0.21699138,-0.1537839,0.13072795,-0.8485932,-0.0358974,0.24592036,1.0413954,0.2650806,0.42997578,0.5745343,0.12315254,-0.96813285,-0.021028291,0.076742515,-0.6894937,0.12876678,0.098304674,0.13893494,-0.04782788,0.14257224,0.1372118,1.3713034,-0.66252553,0.0015666395,0.10571336,0.2497062,-0.024019673,0.1612625,0.19305591,0.10220504,0.35789242,0.058596447,-0.32104066,0.755821,0.40243998,0.52541065,-0.12766333,0.06584026,0.21841489,-0.6374723,-0.10652141,-0.12026734,0.17317021,-0.10777755,0.06264469,0.09427457,0.0029220325,-0.08181601,-0.124351114,-0.04561364,0.08791625,0.039512157,-0.18475461,-0.38106424,0.16683371,0.17119592,0.08516299,0.11884915,-0.17431231,0.12548809,-0.3404175,-0.035381116,0.12475051,0.07360564,-0.5466129,-0.27404612,0.1616014,-0.073607765,-0.017199224,-0.048860203,-0.008943071,-0.4001498,0.5692891,-0.19145516,-0.049883448,0.1963641,-0.36919567,0.2110772,0.037613492,-0.3937807,-0.22260727,0.0021270204,0.010035288,-0.16054901,0.14161786,0.0054021864,-0.4818746,0.07424481,0.008824316,-0.20206761,-0.46553397,-0.028513875,-0.09893137,-0.119219065,-0.49356374,-0.09849545,-0.5526451,0.07290542,-0.21817389,-0.0019184911,0.19577765,0.011216083,-0.04940452,0.10391711,0.058071934,0.06901882,-0.2845358,0.028371098,0.09452967,0.034526434,0.1416276,-0.5522341,-0.01084099,0.006057917,0.22853662,-0.58695334,-0.03448101,0.09473203,0.122330084,-0.1334444,-0.17525195,-0.16078955,0.17456768,-0.3286853,0.013385344,0.099177405,0.1938244,0.0109306,-0.15501228,-0.2289218,-0.006607885,-0.0948827,0.13112494,-0.48992738,0.10784369,0.18011048,-0.2480629,-0.43869102,-0.4494589,-0.31834006,0.4170327,-0.5078723,-0.015181978,0.27694237,-0.41624483,0.014884204,-0.19098048,-0.9880407,0.3398367,0.21557458,0.014687456,0.0036060382,0.34160656,0.5010311,-0.0039600683,0.5658865,-0.0670464,0.35687566,-0.66407704,-0.5351419,0.45815265,-0.13109127,0.3347203,0.26317272,0.4487736,-0.30770195,0.5094969,-0.3410506,0.10010159,0.0029467265,0.060291737,0.30839574,0.27667484,0.40786493,0.07770875,1.1660818,0.3106364,0.46741658,0.37032595,0.5609498,0.3496246,-0.5698211,-0.4058708,0.33707228,0.5741785,0.5051766,-0.5438617,-0.9749155,-0.8958405,-0.07974613,-0.38533276,-0.17895469,0.049287442,-0.1995462,-0.55212975,0.19160704,0.43391365,-0.074819945,-0.54103655,0.49720624,0.38850868,0.42845586,-0.2001147,-0.16036485,0.31507796,-0.1648736,-0.5063476,0.092243336,-0.21954356,0.29395905,0.551767,-0.9368664,0.23415442,-0.2258059,0.110730514,-0.69495606,0.081278466,0.3086749,0.43179443,0.11740257,-0.16687867,-0.48331103,0.4455372,0.84697056,0.42965186,-0.4166883,0.10374278,0.35720453,-0.25295645,0.8592531,0.22146626,-0.20778216,-0.3116889,0.34545562,-0.5035241,0.4189113,0.05848562,0.3487035,0.5016858,-0.044267785,0.99389064,0.7889894,0.019732853,-0.07934647,0.13279074,-0.117465705,-0.19190055,0.32924643,-0.13611801,0.19138256,0.12960203,0.03400487,0.05327852,-0.36504555,0.25842685,0.5719061,0.3172535,0.6278469,-0.58316994,0.32528153,0.56086725,0.021541808,0.31745493,0.056304213,-0.2987234,0.26195523,0.3830345,0.14764051,-0.0950317,-0.048748698,-0.24282384,0.15944856,-0.15586963,0.11749455,-0.064287245,0.1179719,0.21039875,-0.010230481,0.21744694,-0.22137778,-0.004496286,0.6857517,0.44430673,0.26789564,-0.08953948,-0.7991946,-0.1752442,-0.50597495,-0.6630926,0.59455794,0.2667537,-0.017137436,0.17202747,0.69270694,0.29035154,-0.20542078,0.3698906,0.27132633,0.21716179,0.33549035,0.08392658,-0.15024795,0.31165114,-0.53032047,-0.08787519,0.23695712,0.93694097,0.2654061,0.32052165,0.15340002,0.086355574,-0.7671293,0.037718136,0.2941928,-0.6814917,-0.23722753,-0.081826925,0.19957697,-0.093707636,0.10428502,0.113351926,1.3778316,-0.76797867,0.7044854,-0.12105346,0.20693283,0.22759928,0.086637065,0.0012645677,-0.115504764,0.36096534,0.22238347,-0.116018966,0.8731563,0.24898405,0.63478035,0.67880666,-0.664528,-0.92056614,0.48305538,-0.45764458,-1.2680467,-0.047493543,0.49054053,-0.53692055,-0.21398452,-0.13157783,0.05541253,0.016878426,-0.049451012,0.6917271,-0.49189845,0.1097615,0.26635486,-0.87429637,0.09173569,0.084611945,-0.93954945,-0.15139404,0.27507663,-0.4532655,0.17028531,-0.5515875,-0.2104611,-0.17090972,0.05541163,-0.5387309,-0.36676073,-0.29674768,-0.44213882,0.07063389,-1.4773785,-2.8052132,0.07723034,0.045799185,0.5882551,0.43098885,-0.29196203,-0.70011276,0.3779528,-0.039858118,-0.5044009,-0.5410263,-0.35138437,0.049680095,-1.9663678,0.07533896,-1.0077157,-0.31777096,0.70255053,-0.46340123,0.782113,0.08320857,-0.15724963,-1.1762797,-0.83266324,0.431901,0.23718384,-0.8170591,-0.7336583,-0.6394643,-0.12289125,-0.38449052,-0.63474935,-0.23747621,0.0059172395,-1.0452757,-0.6058126,-0.6148041,-0.25613746,-0.42242905,-0.39048237,-0.4208518,0.14864528,-0.9518819,0.6064151,0.53645664,-0.81998193,0.97906226,-0.061542876,0.46656746,-1.6940681,-0.52326834,-2.0287774,-0.18798478,-0.32485518,-0.13383028,-0.69491804,-0.11570803,-0.7820172,-0.033715703,0.16209447,-0.67858785,-0.95341605,-0.37285793,-0.6919574,-0.23616499,-0.07153743,0.2351594,-0.8980429,0.34926495,-0.044559244,-0.164428,-0.6683177,-0.18496406,-0.14152537,-0.17547469,-0.073219456,0.07595637,0.048110396,-0.1572384,-0.16698128,-0.44670534,-0.722279,-0.33516383,0.068206,-0.20968865,-0.22405511,0.68036985,-0.060976733,-0.0064748987,-0.45188487,-0.061164055,0.21550108,-0.1808158,-0.25784782,-0.027009482,-0.36601135,0.38299078,-0.29742077,-0.7764461,-0.41816613,-0.7867035,-0.020129647,0.5951203,0.03079465,-0.50036365,-0.04078804,-0.035269305,0.21427302,-0.5852388,-0.19670962,-0.36721894,-0.5763568,0.22163595,-0.58164114,-0.57422495,-0.2927264,0.5696507,-0.20864588,-0.05163422,-0.91851044,0.20662633,-0.5858784,-0.5079449,-0.39494497,-0.28978592,-0.19116779,-0.13150245,0.028828822,0.17027642,0.06786055,-0.35372663,1.0427628,0.13498612,-0.16198368,-0.1450629,-0.19503362,-0.20104419,0.13256852,0.5287981,0.45817906,-0.29993165,-0.18977307,-0.7682711,0.6487189,-0.68193793,-0.4018581,-0.5039792,-0.30946654,-0.62948084,0.11516353,0.0479489,-1.3752826,0.11693711,0.1741175,0.3281169,-0.18335281,-0.41018593,-0.951414,-0.18615437,-0.06126208,-1.1021647,-0.7820356,-0.002309536,-0.1368875,-0.071415715,-0.023936642,-0.009500444,0.033312276,0.08308943,0.0856363,-0.019109499,-0.0046640164,-0.004676058,0.0281951,0.030694872,-0.038521327,-0.0058601503,0.025366176,-0.0033212618,0.005326142,0.042289615,-0.014702354,0.03432145,0.03916979,-0.011811008,-0.005015921,-0.12406074,-0.021367697,-0.018319143,-0.034521695,0.005500839,0.01062015,-0.099299245,-0.04149177,0.019832257,-0.01276078,0.056305695,-0.048295423,-0.049473144,0.0017842258,0.37305272,0.060318563,0.08643859,-0.0073999483,0.016408172,0.020868849,0.008576221,-0.00005302846,0.100904584,-0.0073966817,-0.029090991,0.035452522,-0.007718976,-0.00076058006,-0.0110576525,0.0733695,-0.03516855,-0.0010859309,0.0056764116,-0.09127378,-0.032304607,-0.012362125,-0.046033885,-0.011812011,0.025413986,-0.014899645,-0.046190448,0.03811855,0.002424859,0.025052471,-0.040676855,0.16637011,0.0030646296,-0.0011698793,-0.09069968,0.028900173,0.0014529363,-0.024715556,0.031588886,0.055452656,0.0019390805,-0.000091991446,0.090469316,-0.071294606,0.04750261,-0.012389878,0.035669517,0.010583355,-0.060449183,-0.091002345,-0.053319413,0.12392037,0.012966021,0.003204496,0.078421146,0.007949362,-0.026159942,-0.011165938,-0.004695929,0.022433996,0.03036273,0.01400419,0.025801677,0.02979989,0.5784866,-0.38134778,-0.011580358,0.2831992,0.2894215,-0.578705,0.15321101,0.17045696,-0.31038815,-0.06564461,-0.14461753,0.15801838,0.13865012,-0.45862094,0.06975624,-0.16382673,-0.48666865,0.5857432,0.059050776,0.3975591,0.1402871,-0.08855468,1.1130356,0.10453512,0.48903313,-0.4552521,-0.20744316,-0.101687305,0.14780368,-0.017511811,0.07257115,-0.124935456,-0.17689547,-0.6502807,-0.30213922,-0.43874726,-1.935387,-0.23917001,0.6971607,-0.017006613,-0.39012676,0.3351538,0.1682883,-0.31109965,-0.6349341,-0.106062494,0.42746985,0.07624318,-0.09643077,-1.7885295,0.6981165,1.7608926,0.31330734,0.6693599,-0.29058057,-0.19148938,-0.20784244,0.04226136,-0.77679086,-0.6519651,-0.116540276,0.8049464,0.38474038,-0.3786562,-0.36224028,0.77647674,-0.009366776,1.2239109,-0.030358613,-0.06157229,-0.4862148,0.12092542,-0.42155853,0.031423673,0.058099926,1.7885445,-0.7367459,-0.15026471,-1.2581848,0.059697904,-0.27277532,-0.054936476,0.16646647,-0.383818,-0.16626403,-0.41504493,-0.10637443,-0.1340085,0.02376174,0.20700684,1.1930978,-0.44978255,-0.3224317,-0.07735075,0.07457912,-0.51514405,-1.5117941,-0.24134415,0.22420469,-0.17862979};
